FANN_FLO_2.1
num_layers=3
learning_rate=0.700000
connection_rate=1.000000
network_type=0
learning_momentum=0.000000
training_algorithm=2
train_error_function=1
train_stop_function=0
cascade_output_change_fraction=0.010000
quickprop_decay=-0.000100
quickprop_mu=1.750000
rprop_increase_factor=1.200000
rprop_decrease_factor=0.500000
rprop_delta_min=0.000000
rprop_delta_max=50.000000
rprop_delta_zero=0.100000
cascade_output_stagnation_epochs=12
cascade_candidate_change_fraction=0.010000
cascade_candidate_stagnation_epochs=12
cascade_max_out_epochs=150
cascade_min_out_epochs=50
cascade_max_cand_epochs=150
cascade_min_cand_epochs=50
cascade_num_candidate_groups=2
bit_fail_limit=3.49999994039535522461e-01
cascade_candidate_limit=1.00000000000000000000e+03
cascade_weight_multiplier=4.00000005960464477539e-01
cascade_activation_functions_count=10
cascade_activation_functions=3 5 7 8 10 11 14 15 16 17 
cascade_activation_steepnesses_count=4
cascade_activation_steepnesses=2.50000000000000000000e-01 5.00000000000000000000e-01 7.50000000000000000000e-01 1.00000000000000000000e+00 
layer_sizes=126 33 3 
scale_included=0
neurons (num_inputs, activation_function, activation_steepness)=(0, 0, 0.00000000000000000000e+00) (0, 0, 0.00000000000000000000e+00) (0, 0, 0.00000000000000000000e+00) (0, 0, 0.00000000000000000000e+00) (0, 0, 0.00000000000000000000e+00) (0, 0, 0.00000000000000000000e+00) (0, 0, 0.00000000000000000000e+00) (0, 0, 0.00000000000000000000e+00) (0, 0, 0.00000000000000000000e+00) (0, 0, 0.00000000000000000000e+00) (0, 0, 0.00000000000000000000e+00) (0, 0, 0.00000000000000000000e+00) (0, 0, 0.00000000000000000000e+00) (0, 0, 0.00000000000000000000e+00) (0, 0, 0.00000000000000000000e+00) (0, 0, 0.00000000000000000000e+00) (0, 0, 0.00000000000000000000e+00) (0, 0, 0.00000000000000000000e+00) (0, 0, 0.00000000000000000000e+00) (0, 0, 0.00000000000000000000e+00) (0, 0, 0.00000000000000000000e+00) (0, 0, 0.00000000000000000000e+00) (0, 0, 0.00000000000000000000e+00) (0, 0, 0.00000000000000000000e+00) (0, 0, 0.00000000000000000000e+00) (0, 0, 0.00000000000000000000e+00) (0, 0, 0.00000000000000000000e+00) (0, 0, 0.00000000000000000000e+00) (0, 0, 0.00000000000000000000e+00) (0, 0, 0.00000000000000000000e+00) (0, 0, 0.00000000000000000000e+00) (0, 0, 0.00000000000000000000e+00) (0, 0, 0.00000000000000000000e+00) (0, 0, 0.00000000000000000000e+00) (0, 0, 0.00000000000000000000e+00) (0, 0, 0.00000000000000000000e+00) (0, 0, 0.00000000000000000000e+00) (0, 0, 0.00000000000000000000e+00) (0, 0, 0.00000000000000000000e+00) (0, 0, 0.00000000000000000000e+00) (0, 0, 0.00000000000000000000e+00) (0, 0, 0.00000000000000000000e+00) (0, 0, 0.00000000000000000000e+00) (0, 0, 0.00000000000000000000e+00) (0, 0, 0.00000000000000000000e+00) (0, 0, 0.00000000000000000000e+00) (0, 0, 0.00000000000000000000e+00) (0, 0, 0.00000000000000000000e+00) (0, 0, 0.00000000000000000000e+00) (0, 0, 0.00000000000000000000e+00) (0, 0, 0.00000000000000000000e+00) (0, 0, 0.00000000000000000000e+00) (0, 0, 0.00000000000000000000e+00) (0, 0, 0.00000000000000000000e+00) (0, 0, 0.00000000000000000000e+00) (0, 0, 0.00000000000000000000e+00) (0, 0, 0.00000000000000000000e+00) (0, 0, 0.00000000000000000000e+00) (0, 0, 0.00000000000000000000e+00) (0, 0, 0.00000000000000000000e+00) (0, 0, 0.00000000000000000000e+00) (0, 0, 0.00000000000000000000e+00) (0, 0, 0.00000000000000000000e+00) (0, 0, 0.00000000000000000000e+00) (0, 0, 0.00000000000000000000e+00) (0, 0, 0.00000000000000000000e+00) (0, 0, 0.00000000000000000000e+00) (0, 0, 0.00000000000000000000e+00) (0, 0, 0.00000000000000000000e+00) (0, 0, 0.00000000000000000000e+00) (0, 0, 0.00000000000000000000e+00) (0, 0, 0.00000000000000000000e+00) (0, 0, 0.00000000000000000000e+00) (0, 0, 0.00000000000000000000e+00) (0, 0, 0.00000000000000000000e+00) (0, 0, 0.00000000000000000000e+00) (0, 0, 0.00000000000000000000e+00) (0, 0, 0.00000000000000000000e+00) (0, 0, 0.00000000000000000000e+00) (0, 0, 0.00000000000000000000e+00) (0, 0, 0.00000000000000000000e+00) (0, 0, 0.00000000000000000000e+00) (0, 0, 0.00000000000000000000e+00) (0, 0, 0.00000000000000000000e+00) (0, 0, 0.00000000000000000000e+00) (0, 0, 0.00000000000000000000e+00) (0, 0, 0.00000000000000000000e+00) (0, 0, 0.00000000000000000000e+00) (0, 0, 0.00000000000000000000e+00) (0, 0, 0.00000000000000000000e+00) (0, 0, 0.00000000000000000000e+00) (0, 0, 0.00000000000000000000e+00) (0, 0, 0.00000000000000000000e+00) (0, 0, 0.00000000000000000000e+00) (0, 0, 0.00000000000000000000e+00) (0, 0, 0.00000000000000000000e+00) (0, 0, 0.00000000000000000000e+00) (0, 0, 0.00000000000000000000e+00) (0, 0, 0.00000000000000000000e+00) (0, 0, 0.00000000000000000000e+00) (0, 0, 0.00000000000000000000e+00) (0, 0, 0.00000000000000000000e+00) (0, 0, 0.00000000000000000000e+00) (0, 0, 0.00000000000000000000e+00) (0, 0, 0.00000000000000000000e+00) (0, 0, 0.00000000000000000000e+00) (0, 0, 0.00000000000000000000e+00) (0, 0, 0.00000000000000000000e+00) (0, 0, 0.00000000000000000000e+00) (0, 0, 0.00000000000000000000e+00) (0, 0, 0.00000000000000000000e+00) (0, 0, 0.00000000000000000000e+00) (0, 0, 0.00000000000000000000e+00) (0, 0, 0.00000000000000000000e+00) (0, 0, 0.00000000000000000000e+00) (0, 0, 0.00000000000000000000e+00) (0, 0, 0.00000000000000000000e+00) (0, 0, 0.00000000000000000000e+00) (0, 0, 0.00000000000000000000e+00) (0, 0, 0.00000000000000000000e+00) (0, 0, 0.00000000000000000000e+00) (0, 0, 0.00000000000000000000e+00) (0, 0, 0.00000000000000000000e+00) (0, 0, 0.00000000000000000000e+00) (0, 0, 0.00000000000000000000e+00) (0, 0, 0.00000000000000000000e+00) (126, 6, 5.00000000000000000000e-01) (126, 6, 5.00000000000000000000e-01) (126, 6, 5.00000000000000000000e-01) (126, 6, 5.00000000000000000000e-01) (126, 6, 5.00000000000000000000e-01) (126, 6, 5.00000000000000000000e-01) (126, 6, 5.00000000000000000000e-01) (126, 6, 5.00000000000000000000e-01) (126, 6, 5.00000000000000000000e-01) (126, 6, 5.00000000000000000000e-01) (126, 6, 5.00000000000000000000e-01) (126, 6, 5.00000000000000000000e-01) (126, 6, 5.00000000000000000000e-01) (126, 6, 5.00000000000000000000e-01) (126, 6, 5.00000000000000000000e-01) (126, 6, 5.00000000000000000000e-01) (126, 6, 5.00000000000000000000e-01) (126, 6, 5.00000000000000000000e-01) (126, 6, 5.00000000000000000000e-01) (126, 6, 5.00000000000000000000e-01) (126, 6, 5.00000000000000000000e-01) (126, 6, 5.00000000000000000000e-01) (126, 6, 5.00000000000000000000e-01) (126, 6, 5.00000000000000000000e-01) (126, 6, 5.00000000000000000000e-01) (126, 6, 5.00000000000000000000e-01) (126, 6, 5.00000000000000000000e-01) (126, 6, 5.00000000000000000000e-01) (126, 6, 5.00000000000000000000e-01) (126, 6, 5.00000000000000000000e-01) (126, 6, 5.00000000000000000000e-01) (126, 6, 5.00000000000000000000e-01) (0, 6, 0.00000000000000000000e+00) (33, 4, 5.00000000000000000000e-01) (33, 4, 5.00000000000000000000e-01) (0, 4, 0.00000000000000000000e+00) 
connections (connected_to_neuron, weight)=(0, 3.41380298137664794922e-01) (1, -2.20323448181152343750e+01) (2, 1.25434055924415588379e-01) (3, 1.96679141372442245483e-02) (4, 1.99463799595832824707e-01) (5, 1.50000000000000000000e+03) (6, 3.78285646438598632812e-01) (7, -2.42981758117675781250e+01) (8, -1.16336309909820556641e+00) (9, -5.80282747745513916016e-01) (10, 1.99905216693878173828e-01) (11, -1.59350872039794921875e+01) (12, 1.99241507053375244141e+00) (13, -3.07124387472867965698e-02) (14, 1.50000000000000000000e+03) (15, -2.39755377173423767090e-01) (16, 1.50000000000000000000e+03) (17, -3.31659018993377685547e-01) (18, -1.59055352210998535156e+00) (19, -1.44805870056152343750e+01) (20, 1.52371302247047424316e-01) (21, -8.76882448792457580566e-02) (22, 1.50000000000000000000e+03) (23, 1.50000000000000000000e+03) (24, 2.21348018646240234375e+01) (25, 2.32647056579589843750e+01) (26, 2.20238513946533203125e+01) (27, -2.37545318603515625000e+01) (28, 4.78515281677246093750e+01) (29, 2.13871707916259765625e+01) (30, 2.31772212982177734375e+01) (31, 2.15170608520507812500e+02) (32, 1.50000000000000000000e+03) (33, 1.08534228056669235229e-02) (34, 1.50000000000000000000e+03) (35, -6.82932794094085693359e-01) (36, 1.49194455146789550781e+00) (37, 1.50000000000000000000e+03) (38, 1.23438136652112007141e-02) (39, -1.46985626220703125000e+00) (40, 5.40229380130767822266e-01) (41, 6.37746334075927734375e-01) (42, 2.21593666076660156250e+01) (43, 9.68139946460723876953e-01) (44, 7.45506733655929565430e-02) (45, -7.55243835449218750000e+01) (46, 1.50000000000000000000e+03) (47, 1.24737210571765899658e-01) (48, 5.40324270725250244141e-01) (49, 1.50000000000000000000e+03) (50, 3.07015389204025268555e-01) (51, 1.69837558269500732422e+00) (52, -6.35460615158081054688e-01) (53, 8.33066329360008239746e-02) (54, -3.01510281860828399658e-02) (55, 3.74013900756835937500e+00) (56, 1.50000000000000000000e+03) (57, 3.08960676193237304688e-01) (58, 1.50000000000000000000e+03) (59, 1.50000000000000000000e+03) (60, 3.28857630491256713867e-01) (61, 1.23315703868865966797e+00) (62, -4.07981300354003906250e+00) (63, 3.57422791421413421631e-02) (64, 3.15308898687362670898e-01) (65, -7.80657351016998291016e-01) (66, 6.78176105022430419922e-01) (67, 4.69914376735687255859e-02) (68, 3.40554527938365936279e-02) (69, 2.30424156188964843750e+01) (70, -2.37573852539062500000e+01) (71, 1.50000000000000000000e+03) (72, 1.50000000000000000000e+03) (73, 6.20075881481170654297e-01) (74, 1.50000000000000000000e+03) (75, 3.38837429881095886230e-02) (76, 2.22025718688964843750e+01) (77, 2.88755059242248535156e-01) (78, 2.31393547058105468750e+01) (79, -2.36943283081054687500e+01) (80, 1.50000000000000000000e+03) (81, 1.50000000000000000000e+03) (82, 5.62276959419250488281e-01) (83, 1.50000000000000000000e+03) (84, -4.68156754970550537109e-01) (85, 2.14295787811279296875e+01) (86, 1.33493855595588684082e-01) (87, 1.50000000000000000000e+03) (88, 1.50000000000000000000e+03) (89, 1.50000000000000000000e+03) (90, 3.57012338936328887939e-02) (91, 2.23585033416748046875e+01) (92, -2.37715301513671875000e+01) (93, 3.43310050666332244873e-02) (94, 1.06831169128417968750e+01) (95, 1.50000000000000000000e+03) (96, 4.11771535873413085938e-01) (97, 1.50000000000000000000e+03) (98, 2.31953849792480468750e+01) (99, -2.37243652343750000000e+01) (100, 3.67466062307357788086e-01) (101, 1.50000000000000000000e+03) (102, 1.50000000000000000000e+03) (103, 6.77056372165679931641e-01) (104, 6.83194816112518310547e-01) (105, 1.50000000000000000000e+03) (106, -6.21879518032073974609e-01) (107, -1.79708160400390625000e+02) (108, 1.50000000000000000000e+03) (109, 1.50000000000000000000e+03) (110, -5.10059535503387451172e-01) (111, 1.50000000000000000000e+03) (112, 1.50000000000000000000e+03) (113, 3.42665836215019226074e-02) (114, 1.50000000000000000000e+03) (115, 4.23883944749832153320e-02) (116, -4.29103732109069824219e-01) (117, 1.18712580204010009766e+00) (118, 2.11449023336172103882e-02) (119, 4.03343498706817626953e-01) (120, 1.48409988403320312500e+02) (121, 5.84190487861633300781e-01) (122, 1.17264255881309509277e-01) (123, 1.50000000000000000000e+03) (124, -1.15036398172378540039e-01) (125, 5.09711075574159622192e-03) (0, -1.22010223567485809326e-01) (1, -2.41931591033935546875e+01) (2, -1.30849337577819824219e+00) (3, -1.39929533004760742188e+00) (4, -8.13050627708435058594e-01) (5, 1.50000000000000000000e+03) (6, -1.32587552070617675781e-01) (7, -2.51650199890136718750e+01) (8, -2.25198602676391601562e+00) (9, 1.52273671701550483704e-02) (10, -6.00472986698150634766e-02) (11, -5.95094537734985351562e+00) (12, 1.70633867383003234863e-01) (13, -9.15910676121711730957e-02) (14, 1.50000000000000000000e+03) (15, 1.50699317455291748047e-01) (16, 1.50000000000000000000e+03) (17, -6.79178524017333984375e+00) (18, -5.68440580368041992188e+00) (19, -9.14036941528320312500e+00) (20, -1.17856216430664062500e+00) (21, -7.88396522402763366699e-02) (22, 1.50000000000000000000e+03) (23, 1.50000000000000000000e+03) (24, 2.43146381378173828125e+01) (25, 2.70760364532470703125e+01) (26, 2.66401920318603515625e+01) (27, -4.20341491699218750000e-02) (28, 4.98165428638458251953e-01) (29, 2.64802284240722656250e+01) (30, 2.71361331939697265625e+01) (31, -4.17896032333374023438e+00) (32, 1.50000000000000000000e+03) (33, -7.71116435527801513672e-01) (34, 1.50000000000000000000e+03) (35, -4.56195265054702758789e-01) (36, -3.62793505191802978516e-01) (37, 1.50000000000000000000e+03) (38, -5.27648687362670898438e-01) (39, -1.41233995556831359863e-01) (40, 1.79063868522644042969e+00) (41, 2.81419545412063598633e-01) (42, 2.66181259155273437500e+01) (43, 3.67592722177505493164e-01) (44, 4.74199205636978149414e-01) (45, -7.50609130859375000000e+01) (46, 1.50000000000000000000e+03) (47, -6.15574061870574951172e-01) (48, 1.96548685431480407715e-01) (49, 1.50000000000000000000e+03) (50, -8.31108927726745605469e-01) (51, -1.69563162326812744141e+00) (52, -6.86347961425781250000e-01) (53, -6.49533390998840332031e-01) (54, -1.67979574203491210938e+00) (55, 2.67001586914062500000e+02) (56, 1.50000000000000000000e+03) (57, 1.62124609947204589844e+00) (58, 1.50000000000000000000e+03) (59, 1.50000000000000000000e+03) (60, 2.80562090873718261719e+00) (61, -7.16760754585266113281e-02) (62, -7.66110992431640625000e+01) (63, -5.35046875476837158203e-01) (64, 2.21797347068786621094e+00) (65, 2.02833347320556640625e+01) (66, 1.19107222557067871094e+00) (67, -4.06306207180023193359e-01) (68, 2.15266317129135131836e-01) (69, 2.70979003906250000000e+01) (70, -4.31556701660156250000e-02) (71, 1.50000000000000000000e+03) (72, 1.50000000000000000000e+03) (73, 6.78999066352844238281e-01) (74, 1.50000000000000000000e+03) (75, -9.22166645526885986328e-01) (76, 2.68113536834716796875e+01) (77, 6.57611429691314697266e-01) (78, 2.71511459350585937500e+01) (79, 3.19175720214843750000e-02) (80, 1.50000000000000000000e+03) (81, 1.50000000000000000000e+03) (82, 6.01452827453613281250e-01) (83, 1.50000000000000000000e+03) (84, -9.19016659259796142578e-01) (85, 2.62689247131347656250e+01) (86, -1.52792525291442871094e+00) (87, 1.50000000000000000000e+03) (88, 1.50000000000000000000e+03) (89, 1.50000000000000000000e+03) (90, -3.01607513427734375000e+00) (91, 2.66812229156494140625e+01) (92, -1.16573333740234375000e-01) (93, -1.02995228767395019531e+00) (94, 3.44463527202606201172e-01) (95, 1.50000000000000000000e+03) (96, 3.81761878728866577148e-01) (97, 1.50000000000000000000e+03) (98, 2.70329074859619140625e+01) (99, -4.80041503906250000000e-02) (100, -5.03221489489078521729e-02) (101, 1.50000000000000000000e+03) (102, 1.50000000000000000000e+03) (103, 1.94045543670654296875e+00) (104, 2.97419953346252441406e+00) (105, 1.50000000000000000000e+03) (106, 1.19808606803417205811e-01) (107, -1.72297851562500000000e+02) (108, 1.50000000000000000000e+03) (109, 1.50000000000000000000e+03) (110, -1.21449480056762695312e+01) (111, 1.50000000000000000000e+03) (112, 1.50000000000000000000e+03) (113, -1.63864445686340332031e+00) (114, 1.50000000000000000000e+03) (115, -1.86684057116508483887e-02) (116, -8.11196211725473403931e-03) (117, 5.77731251716613769531e-01) (118, -5.21749377250671386719e-01) (119, 5.45286715030670166016e-01) (120, 7.93668518066406250000e+01) (121, 9.96795594692230224609e-01) (122, 5.43458521366119384766e-01) (123, 1.50000000000000000000e+03) (124, -1.50888741016387939453e+00) (125, -1.51687884330749511719e+00) (0, 1.85740065574645996094e+00) (1, -2.18852767944335937500e+01) (2, -2.88098931312561035156e-01) (3, -2.00463518500328063965e-01) (4, 2.55309581756591796875e-01) (5, 1.50000000000000000000e+03) (6, 4.96470153331756591797e-01) (7, -2.42639350891113281250e+01) (8, 4.02542501688003540039e-01) (9, -6.14320695400238037109e-01) (10, 1.54758095741271972656e-01) (11, -1.58719234466552734375e+01) (12, 8.74217867851257324219e-01) (13, -1.20367236435413360596e-01) (14, 1.50000000000000000000e+03) (15, -1.50908485054969787598e-01) (16, 1.50000000000000000000e+03) (17, -3.43345952033996582031e+00) (18, -2.18913704156875610352e-01) (19, -1.42998313903808593750e+01) (20, 1.75875321030616760254e-01) (21, -1.27577006816864013672e-01) (22, 1.50000000000000000000e+03) (23, 1.50000000000000000000e+03) (24, 2.22517719268798828125e+01) (25, 2.32742347717285156250e+01) (26, 2.20593910217285156250e+01) (27, -2.37443466186523437500e+01) (28, 3.60919427871704101562e+00) (29, 2.14205513000488281250e+01) (30, 2.31642036437988281250e+01) (31, 2.15234298706054687500e+02) (32, 1.50000000000000000000e+03) (33, -2.15696752071380615234e-01) (34, 1.50000000000000000000e+03) (35, -5.38438022136688232422e-01) (36, 6.90280914306640625000e-01) (37, 1.50000000000000000000e+03) (38, 5.47500431537628173828e-01) (39, -8.57325851917266845703e-01) (40, 6.48328781127929687500e-01) (41, 5.58992207050323486328e-01) (42, 2.20091209411621093750e+01) (43, 1.00913512706756591797e+00) (44, 3.06512624025344848633e-01) (45, -7.54968795776367187500e+01) (46, 1.50000000000000000000e+03) (47, -1.38545006513595581055e-01) (48, 7.44262039661407470703e-01) (49, 1.50000000000000000000e+03) (50, 5.07362484931945800781e-01) (51, 1.70842421054840087891e+00) (52, -5.32154023647308349609e-01) (53, -2.95668840408325195312e-01) (54, -2.94389873743057250977e-01) (55, 1.76999130249023437500e+01) (56, 1.50000000000000000000e+03) (57, 6.75929784774780273438e-01) (58, 1.50000000000000000000e+03) (59, 1.50000000000000000000e+03) (60, 5.26916205883026123047e-01) (61, 1.25060355663299560547e+00) (62, -6.94595432281494140625e+00) (63, 4.25673097372055053711e-01) (64, 4.94297802448272705078e-01) (65, 4.59573221206665039062e+00) (66, 6.47802293300628662109e-01) (67, 4.38103705644607543945e-01) (68, -3.41944769024848937988e-02) (69, 2.31907768249511718750e+01) (70, -2.37444763183593750000e+01) (71, 1.50000000000000000000e+03) (72, 1.50000000000000000000e+03) (73, 6.82737946510314941406e-01) (74, 1.50000000000000000000e+03) (75, 3.99534404277801513672e-01) (76, 2.22927379608154296875e+01) (77, 4.02738779783248901367e-01) (78, 2.31120433807373046875e+01) (79, -2.37497558593750000000e+01) (80, 1.50000000000000000000e+03) (81, 1.50000000000000000000e+03) (82, 7.16893970966339111328e-01) (83, 1.50000000000000000000e+03) (84, 3.64621192216873168945e-01) (85, 2.13599567413330078125e+01) (86, -1.29160672426223754883e-01) (87, 1.50000000000000000000e+03) (88, 1.50000000000000000000e+03) (89, 1.50000000000000000000e+03) (90, -3.51081073284149169922e-01) (91, 2.23448677062988281250e+01) (92, -2.37462692260742187500e+01) (93, -2.88459539413452148438e-01) (94, 3.37654519081115722656e+00) (95, 1.50000000000000000000e+03) (96, 4.78129863739013671875e-01) (97, 1.50000000000000000000e+03) (98, 2.30778503417968750000e+01) (99, -2.37926025390625000000e+01) (100, 5.00809133052825927734e-01) (101, 1.50000000000000000000e+03) (102, 1.50000000000000000000e+03) (103, 6.66428744792938232422e-01) (104, 7.04123139381408691406e-01) (105, 1.50000000000000000000e+03) (106, -6.99429690837860107422e-01) (107, -1.79659957885742187500e+02) (108, 1.50000000000000000000e+03) (109, 1.50000000000000000000e+03) (110, -1.10413014888763427734e+00) (111, 1.50000000000000000000e+03) (112, 1.50000000000000000000e+03) (113, 5.42818188667297363281e-01) (114, 1.50000000000000000000e+03) (115, 2.69306361675262451172e-01) (116, -5.51340639591217041016e-01) (117, 9.37862038612365722656e-01) (118, 3.17255884408950805664e-01) (119, 4.26788359880447387695e-01) (120, 1.48408523559570312500e+02) (121, 7.06066966056823730469e-01) (122, 2.99329638481140136719e-01) (123, 1.50000000000000000000e+03) (124, -3.23135137557983398438e-01) (125, -2.17596188187599182129e-01) (0, 3.58630776405334472656e-01) (1, 1.50000000000000000000e+03) (2, 3.84779244661331176758e-01) (3, 2.09069643169641494751e-02) (4, -4.42019730806350708008e-01) (5, -2.57567958831787109375e+01) (6, 2.11630210280418395996e-01) (7, 1.50000000000000000000e+03) (8, -4.17295992374420166016e-02) (9, -2.42000207304954528809e-01) (10, -2.46156141161918640137e-01) (11, 2.58415008544921875000e+02) (12, 5.98498620092868804932e-02) (13, 4.48305100202560424805e-01) (14, -2.60715560913085937500e+01) (15, 4.66174364089965820312e+00) (16, -2.47747097015380859375e+01) (17, -7.93760240077972412109e-01) (18, 1.96382188796997070312e+00) (19, 6.87445861816406250000e+02) (20, -7.36760377883911132812e-01) (21, -5.39520978927612304688e-01) (22, -7.37684326171875000000e+01) (23, -7.36104736328125000000e+01) (24, 1.50000000000000000000e+03) (25, 1.50000000000000000000e+03) (26, 1.50000000000000000000e+03) (27, 1.50000000000000000000e+03) (28, -1.07135093212127685547e+00) (29, 1.50000000000000000000e+03) (30, 1.50000000000000000000e+03) (31, -7.85471439361572265625e+00) (32, 1.50000000000000000000e+03) (33, 7.28396847844123840332e-02) (34, 1.50000000000000000000e+03) (35, -2.25174427032470703125e-02) (36, 1.42310440540313720703e-01) (37, 1.50000000000000000000e+03) (38, -1.46772980690002441406e-01) (39, 1.57409071922302246094e-01) (40, -3.81134271621704101562e-01) (41, -6.38658189773559570312e+00) (42, 1.50000000000000000000e+03) (43, -2.34695047140121459961e-01) (44, -7.90725111961364746094e-01) (45, 1.50000000000000000000e+03) (46, -2.65022125244140625000e+01) (47, 3.96929800510406494141e-01) (48, 1.42322242259979248047e-01) (49, 1.27041748046875000000e+02) (50, 2.52974890172481536865e-02) (51, 9.86719056963920593262e-02) (52, -3.51569242775440216064e-02) (53, 3.99296551942825317383e-01) (54, 4.42303679883480072021e-02) (55, 4.07612949609756469727e-01) (56, 1.50000000000000000000e+03) (57, -4.62214142084121704102e-01) (58, 1.50000000000000000000e+03) (59, 1.27339828491210937500e+02) (60, -4.66335105895996093750e+00) (61, 1.55055654048919677734e+00) (62, 3.87536811828613281250e+00) (63, 2.08091795444488525391e-01) (64, -1.00146293640136718750e+00) (65, 1.58526229858398437500e+00) (66, -3.72062236070632934570e-01) (67, -5.62414526939392089844e-01) (68, 1.21278381347656250000e+00) (69, 1.50000000000000000000e+03) (70, 1.50000000000000000000e+03) (71, -2.63596305847167968750e+01) (72, -2.65843238830566406250e+01) (73, -5.90499460697174072266e-01) (74, 1.27060287475585937500e+02) (75, 3.28401625156402587891e-01) (76, 1.50000000000000000000e+03) (77, -4.39127862453460693359e-01) (78, 1.50000000000000000000e+03) (79, 1.50000000000000000000e+03) (80, -2.63862457275390625000e+01) (81, -2.66289710998535156250e+01) (82, -5.17520606517791748047e-01) (83, 1.27154060363769531250e+02) (84, 4.67606335878372192383e-01) (85, 1.50000000000000000000e+03) (86, 3.52585166692733764648e-01) (87, 1.50000000000000000000e+03) (88, -2.66163902282714843750e+01) (89, -2.64732303619384765625e+01) (90, -4.99084442853927612305e-02) (91, 1.50000000000000000000e+03) (92, 1.50000000000000000000e+03) (93, -2.51268986612558364868e-02) (94, -3.47649650573730468750e+01) (95, 1.50000000000000000000e+03) (96, -5.22242248058319091797e-01) (97, -2.73760604858398437500e+01) (98, 1.50000000000000000000e+03) (99, 1.50000000000000000000e+03) (100, 1.59771591424942016602e-01) (101, 1.50000000000000000000e+03) (102, 1.50000000000000000000e+03) (103, -1.59932470321655273438e+01) (104, -1.57266530990600585938e+01) (105, -2.65392837524414062500e+01) (106, -3.45379173755645751953e-01) (107, 1.50000000000000000000e+03) (108, -2.65101966857910156250e+01) (109, 1.27424903869628906250e+02) (110, 6.85393661260604858398e-02) (111, -2.65980834960937500000e+01) (112, -2.49198322296142578125e+01) (113, -5.18892705440521240234e-01) (114, 2.67965240478515625000e+01) (115, -6.32920935750007629395e-02) (116, -3.11339572072029113770e-02) (117, -1.57215490937232971191e-01) (118, 5.14279678463935852051e-02) (119, -4.64984774589538574219e-01) (120, 6.38545989990234375000e+01) (121, -4.81146812438964843750e-01) (122, -1.31759673357009887695e-01) (123, -3.44885375976562500000e+02) (124, 8.24483454227447509766e-01) (125, 3.93418699502944946289e-01) (0, 2.10372543334960937500e+00) (1, -2.20142593383789062500e+01) (2, 1.71154346317052841187e-02) (3, 8.74265655875205993652e-02) (4, 3.01802337169647216797e-01) (5, 1.50000000000000000000e+03) (6, 2.32590064406394958496e-01) (7, -2.42454853057861328125e+01) (8, 1.28295928239822387695e-01) (9, 9.78346392512321472168e-02) (10, 4.60112810134887695312e-01) (11, -1.58784923553466796875e+01) (12, 8.82862210273742675781e-01) (13, 4.67541925609111785889e-02) (14, 1.50000000000000000000e+03) (15, -2.79847025871276855469e-01) (16, 1.50000000000000000000e+03) (17, -3.58570265769958496094e+00) (18, 2.33847290277481079102e-01) (19, -1.86220512390136718750e+01) (20, 3.99264186620712280273e-01) (21, -2.05847755074501037598e-01) (22, 1.50000000000000000000e+03) (23, 1.50000000000000000000e+03) (24, 2.20859832763671875000e+01) (25, 2.33877429962158203125e+01) (26, 2.21024112701416015625e+01) (27, -2.38677978515625000000e+01) (28, 4.72523832321166992188e+00) (29, 2.13341693878173828125e+01) (30, 2.31794490814208984375e+01) (31, 2.15236587524414062500e+02) (32, 1.50000000000000000000e+03) (33, -9.52372997999191284180e-02) (34, 1.50000000000000000000e+03) (35, -7.06144750118255615234e-01) (36, 7.73904323577880859375e-01) (37, 1.50000000000000000000e+03) (38, 4.18222956359386444092e-02) (39, -7.52106070518493652344e-01) (40, 6.07453644275665283203e-01) (41, 6.65372252464294433594e-01) (42, 2.20713329315185546875e+01) (43, 9.32366549968719482422e-01) (44, 1.46319940686225891113e-01) (45, -7.54794692993164062500e+01) (46, 1.50000000000000000000e+03) (47, 9.13534089922904968262e-02) (48, 4.98068898916244506836e-01) (49, 1.50000000000000000000e+03) (50, 6.07276976108551025391e-01) (51, 4.92476999759674072266e-01) (52, 3.24025563895702362061e-02) (53, -5.68525828421115875244e-02) (54, -9.05018486082553863525e-03) (55, 3.12260293960571289062e+00) (56, 1.50000000000000000000e+03) (57, 7.37786531448364257812e-01) (58, 1.50000000000000000000e+03) (59, 1.50000000000000000000e+03) (60, 3.37427407503128051758e-01) (61, 1.29566633701324462891e+00) (62, -1.01094627380371093750e+01) (63, 2.09837164729833602905e-02) (64, 4.19820338487625122070e-01) (65, -8.03427755832672119141e-01) (66, 6.40205562114715576172e-01) (67, 8.93989205360412597656e-02) (68, -1.65309552103281021118e-02) (69, 2.32339248657226562500e+01) (70, -2.38596038818359375000e+01) (71, 1.50000000000000000000e+03) (72, 1.50000000000000000000e+03) (73, 6.29823088645935058594e-01) (74, 1.50000000000000000000e+03) (75, 8.79589095711708068848e-02) (76, 2.22572345733642578125e+01) (77, 3.09184253215789794922e-01) (78, 2.31044063568115234375e+01) (79, -2.37160949707031250000e+01) (80, 1.50000000000000000000e+03) (81, 1.50000000000000000000e+03) (82, 5.70666909217834472656e-01) (83, 1.50000000000000000000e+03) (84, -7.02058151364326477051e-02) (85, 2.14325675964355468750e+01) (86, 9.26184281706809997559e-02) (87, 1.50000000000000000000e+03) (88, 1.50000000000000000000e+03) (89, 1.50000000000000000000e+03) (90, -8.91581997275352478027e-02) (91, 2.22548103332519531250e+01) (92, -2.36896057128906250000e+01) (93, -4.46280650794506072998e-02) (94, 6.81328153610229492188e+00) (95, 1.50000000000000000000e+03) (96, -1.06426887214183807373e-01) (97, 1.50000000000000000000e+03) (98, 2.30761260986328125000e+01) (99, -2.38766860961914062500e+01) (100, 4.05767112970352172852e-01) (101, 1.50000000000000000000e+03) (102, 1.50000000000000000000e+03) (103, 7.31275439262390136719e-01) (104, 7.34359383583068847656e-01) (105, 1.50000000000000000000e+03) (106, -6.32118105888366699219e-01) (107, -1.79665222167968750000e+02) (108, 1.50000000000000000000e+03) (109, 1.50000000000000000000e+03) (110, -1.28582692146301269531e+00) (111, 1.50000000000000000000e+03) (112, 1.50000000000000000000e+03) (113, 1.81619834899902343750e+00) (114, 1.50000000000000000000e+03) (115, 3.01478415727615356445e-01) (116, -3.96562069654464721680e-01) (117, 1.03807723522186279297e+00) (118, 5.27624860405921936035e-02) (119, 3.12033921480178833008e-01) (120, 1.48480331420898437500e+02) (121, 6.91090106964111328125e-01) (122, 1.22261211276054382324e-01) (123, 1.50000000000000000000e+03) (124, -9.36979055404663085938e-01) (125, 9.16421040892601013184e-02) (0, -2.85134404897689819336e-01) (1, -2.36833763122558593750e+01) (2, -3.07681523263454437256e-02) (3, 2.44346827268600463867e-01) (4, 5.97806096076965332031e-01) (5, 1.50000000000000000000e+03) (6, 3.34439963102340698242e-01) (7, -2.70021648406982421875e+01) (8, -3.48496079444885253906e-01) (9, 4.88233178853988647461e-01) (10, 1.45332360267639160156e+00) (11, -5.69803953170776367188e+00) (12, 4.22800391912460327148e-01) (13, 1.19936831295490264893e-01) (14, 1.50000000000000000000e+03) (15, 5.34647524356842041016e-01) (16, 1.50000000000000000000e+03) (17, 9.40487444400787353516e-01) (18, -6.59988462924957275391e-01) (19, -1.36613121032714843750e+01) (20, 5.72390016168355941772e-03) (21, 7.66238272190093994141e-01) (22, 1.50000000000000000000e+03) (23, 1.50000000000000000000e+03) (24, 2.41737518310546875000e+01) (25, 2.74419555664062500000e+01) (26, 2.40468921661376953125e+01) (27, 1.30305557250976562500e+01) (28, 2.69098114967346191406e+00) (29, 2.38959445953369140625e+01) (30, 2.73080558776855468750e+01) (31, 8.96814651489257812500e+01) (32, 1.50000000000000000000e+03) (33, -1.98946684598922729492e-01) (34, 1.50000000000000000000e+03) (35, 3.39890897274017333984e-01) (36, 1.19310617446899414062e+00) (37, 1.50000000000000000000e+03) (38, 3.90462934970855712891e-01) (39, 1.08705736696720123291e-01) (40, 1.97159618139266967773e-01) (41, 1.90029367804527282715e-01) (42, 2.67882041931152343750e+01) (43, 6.39295220375061035156e-01) (44, 1.28142130374908447266e+00) (45, -7.54971542358398437500e+01) (46, 1.50000000000000000000e+03) (47, 2.82687878608703613281e+00) (48, 6.25699758529663085938e-01) (49, 1.50000000000000000000e+03) (50, 1.93222537636756896973e-01) (51, 7.43496954441070556641e-01) (52, 3.72539192438125610352e-01) (53, 1.24668352305889129639e-01) (54, -4.11748528480529785156e-01) (55, 8.74338340759277343750e+00) (56, 1.50000000000000000000e+03) (57, 1.34018659591674804688e+00) (58, 1.50000000000000000000e+03) (59, 1.50000000000000000000e+03) (60, 4.75186377763748168945e-01) (61, 3.18459182977676391602e-01) (62, 1.94803044199943542480e-01) (63, 1.13397233188152313232e-01) (64, 3.23525547981262207031e-01) (65, -1.82585820555686950684e-01) (66, 1.10792684555053710938e+00) (67, -5.32795749604701995850e-02) (68, 3.61721098423004150391e-01) (69, 2.73047561645507812500e+01) (70, 1.29782600402832031250e+01) (71, 1.50000000000000000000e+03) (72, 1.50000000000000000000e+03) (73, 1.10575377941131591797e+00) (74, 1.50000000000000000000e+03) (75, -1.58471420407295227051e-01) (76, 2.66647453308105468750e+01) (77, 1.03749823570251464844e+00) (78, 2.73181095123291015625e+01) (79, 1.30569534301757812500e+01) (80, 1.50000000000000000000e+03) (81, 1.50000000000000000000e+03) (82, 1.08873367309570312500e+00) (83, 1.50000000000000000000e+03) (84, -4.91698980331420898438e-02) (85, 2.40126190185546875000e+01) (86, -1.42428219318389892578e-01) (87, 1.50000000000000000000e+03) (88, 1.50000000000000000000e+03) (89, 1.50000000000000000000e+03) (90, -4.68828886747360229492e-01) (91, 2.67702178955078125000e+01) (92, 1.30564308166503906250e+01) (93, 3.45563650131225585938e-01) (94, 4.30450916290283203125e+00) (95, 1.50000000000000000000e+03) (96, 9.03321444988250732422e-01) (97, 1.50000000000000000000e+03) (98, 2.73796443939208984375e+01) (99, 1.29484214782714843750e+01) (100, 1.31902843713760375977e-01) (101, 1.50000000000000000000e+03) (102, 1.50000000000000000000e+03) (103, 2.11123061180114746094e+00) (104, 3.96677064895629882812e+00) (105, 1.50000000000000000000e+03) (106, 4.04134273529052734375e-01) (107, -1.76248703002929687500e+02) (108, 1.50000000000000000000e+03) (109, 1.50000000000000000000e+03) (110, -4.04544544219970703125e+00) (111, 1.50000000000000000000e+03) (112, 1.50000000000000000000e+03) (113, -3.61167043447494506836e-01) (114, 1.50000000000000000000e+03) (115, 4.95539069175720214844e-01) (116, 4.79697227478027343750e-01) (117, 1.17810165882110595703e+00) (118, 1.92265331745147705078e-01) (119, 6.77387952804565429688e-01) (120, 9.34898376464843750000e+00) (121, 1.11969065666198730469e+00) (122, 8.40634584426879882812e-01) (123, 1.50000000000000000000e+03) (124, 2.43783354759216308594e-01) (125, -1.31426602602005004883e-01) (0, -1.14994913339614868164e-01) (1, -2.59604949951171875000e+01) (2, -6.41357839107513427734e-01) (3, 3.42595696449279785156e-01) (4, 6.74727022647857666016e-01) (5, 1.50000000000000000000e+03) (6, 3.22328746318817138672e-01) (7, -2.68951873779296875000e+01) (8, 7.63469099998474121094e-01) (9, 5.96455216407775878906e-01) (10, 1.72666043043136596680e-01) (11, -6.07617425918579101562e+00) (12, 1.31086364388465881348e-01) (13, 5.56312918663024902344e-01) (14, 1.50000000000000000000e+03) (15, 3.01180273294448852539e-01) (16, 1.50000000000000000000e+03) (17, 1.12315464019775390625e+00) (18, -1.85534369945526123047e+00) (19, -1.36091575622558593750e+01) (20, -2.16955870389938354492e-01) (21, 1.00924122333526611328e+00) (22, 1.50000000000000000000e+03) (23, 1.50000000000000000000e+03) (24, 2.66822357177734375000e+01) (25, 2.71091594696044921875e+01) (26, 2.66297683715820312500e+01) (27, 6.47888183593750000000e-02) (28, 2.87281584739685058594e+00) (29, 2.69490756988525390625e+01) (30, 2.69881172180175781250e+01) (31, 8.92820510864257812500e+01) (32, 1.50000000000000000000e+03) (33, -6.12545669078826904297e-01) (34, 1.50000000000000000000e+03) (35, 1.03687487542629241943e-01) (36, 4.02928560972213745117e-01) (37, 1.50000000000000000000e+03) (38, 4.22556132078170776367e-01) (39, -1.25804677605628967285e-01) (40, 1.24190375208854675293e-01) (41, 1.69039165973663330078e+00) (42, 2.66467056274414062500e+01) (43, 7.68836081027984619141e-01) (44, 7.63554096221923828125e-01) (45, -7.57096633911132812500e+01) (46, 1.50000000000000000000e+03) (47, 2.93059611320495605469e+00) (48, 2.55145043134689331055e-01) (49, 1.50000000000000000000e+03) (50, 2.57990621030330657959e-02) (51, -5.05887670442461967468e-03) (52, 8.18496793508529663086e-02) (53, 4.68502104282379150391e-01) (54, -6.74789249897003173828e-01) (55, 6.36590778827667236328e-01) (56, 1.50000000000000000000e+03) (57, 1.08946216106414794922e+00) (58, 1.50000000000000000000e+03) (59, 1.50000000000000000000e+03) (60, 1.21681857109069824219e+00) (61, 6.15571215748786926270e-02) (62, -1.80237591266632080078e+00) (63, -3.98155413568019866943e-02) (64, 1.70688867568969726562e+00) (65, -1.31298139691352844238e-01) (66, 1.16213512420654296875e+00) (67, 4.67294529080390930176e-02) (68, -1.70373946428298950195e-01) (69, 2.70994434356689453125e+01) (70, -1.07616424560546875000e-01) (71, 1.50000000000000000000e+03) (72, 1.50000000000000000000e+03) (73, 1.08030891418457031250e+00) (74, 1.50000000000000000000e+03) (75, -5.55371999740600585938e-01) (76, 2.67840366363525390625e+01) (77, 9.26128447055816650391e-01) (78, 2.70661888122558593750e+01) (79, 3.63235473632812500000e-02) (80, 1.50000000000000000000e+03) (81, 1.50000000000000000000e+03) (82, 1.02812910079956054688e+00) (83, 1.50000000000000000000e+03) (84, -6.40074431896209716797e-01) (85, 2.63546295166015625000e+01) (86, -3.84394288063049316406e-01) (87, 1.50000000000000000000e+03) (88, 1.50000000000000000000e+03) (89, 1.50000000000000000000e+03) (90, -6.46292328834533691406e-01) (91, 2.66845016479492187500e+01) (92, -3.54499816894531250000e-02) (93, 5.85101470351219177246e-02) (94, 1.17513012886047363281e+00) (95, 1.50000000000000000000e+03) (96, 1.10622358322143554688e+00) (97, 1.50000000000000000000e+03) (98, 2.70513191223144531250e+01) (99, -9.77592468261718750000e-02) (100, -1.15804739296436309814e-01) (101, 1.50000000000000000000e+03) (102, 1.50000000000000000000e+03) (103, 1.39784276485443115234e+00) (104, 1.38663387298583984375e+00) (105, 1.50000000000000000000e+03) (106, 7.29619264602661132812e-01) (107, -1.74020034790039062500e+02) (108, 1.50000000000000000000e+03) (109, 1.50000000000000000000e+03) (110, 1.02065084502100944519e-02) (111, 1.50000000000000000000e+03) (112, 1.50000000000000000000e+03) (113, -1.54933378100395202637e-01) (114, 1.50000000000000000000e+03) (115, -2.80832946300506591797e-01) (116, 4.14166599512100219727e-01) (117, 7.43614852428436279297e-01) (118, -4.84079241752624511719e-01) (119, 7.90598034858703613281e-01) (120, 6.10066604614257812500e+01) (121, 1.13780391216278076172e+00) (122, 4.88583534955978393555e-01) (123, 1.50000000000000000000e+03) (124, 3.52677822113037109375e-01) (125, -3.63175481557846069336e-01) (0, -4.63337850570678710938e+00) (1, 1.50000000000000000000e+03) (2, 4.78918522596359252930e-01) (3, -9.01837926357984542847e-03) (4, -3.65622133016586303711e-01) (5, -2.56793975830078125000e+01) (6, -1.94126740097999572754e-01) (7, 1.50000000000000000000e+03) (8, -1.43240377306938171387e-01) (9, -2.30715617537498474121e-01) (10, -2.50716775655746459961e-01) (11, 2.58287597656250000000e+02) (12, 1.32339641451835632324e-01) (13, 3.00373643636703491211e-01) (14, -2.60947284698486328125e+01) (15, 4.54480838775634765625e+00) (16, -2.48269958496093750000e+01) (17, -6.42008960247039794922e-01) (18, 8.20904552936553955078e-01) (19, 7.29249389648437500000e+02) (20, -1.24061298370361328125e+00) (21, -4.94528830051422119141e-01) (22, -7.37821960449218750000e+01) (23, -7.37142791748046875000e+01) (24, 1.50000000000000000000e+03) (25, 1.50000000000000000000e+03) (26, 1.50000000000000000000e+03) (27, 1.50000000000000000000e+03) (28, -1.14265608787536621094e+00) (29, 1.50000000000000000000e+03) (30, 1.50000000000000000000e+03) (31, -7.95125102996826171875e+00) (32, 1.50000000000000000000e+03) (33, 2.40920316427946090698e-02) (34, 1.50000000000000000000e+03) (35, 7.83701986074447631836e-02) (36, 1.65227663516998291016e+00) (37, 1.50000000000000000000e+03) (38, -1.21601812541484832764e-01) (39, 2.12134286761283874512e-01) (40, -6.98664069175720214844e-01) (41, -1.35191583633422851562e+01) (42, 1.50000000000000000000e+03) (43, -2.08197981119155883789e-01) (44, -7.03850984573364257812e-01) (45, 1.50000000000000000000e+03) (46, -2.65939655303955078125e+01) (47, 2.31518581509590148926e-01) (48, 1.43695831298828125000e-01) (49, 1.26995796203613281250e+02) (50, -7.49364733695983886719e-01) (51, 4.20144796371459960938e-02) (52, -4.74003702402114868164e-02) (53, 4.07737821340560913086e-01) (54, 2.57971212267875671387e-02) (55, 4.82777744531631469727e-01) (56, 1.50000000000000000000e+03) (57, -1.33383059501647949219e+00) (58, 1.50000000000000000000e+03) (59, 1.27303306579589843750e+02) (60, -4.67560338973999023438e+00) (61, 1.47690963745117187500e+00) (62, 7.98235845565795898438e+00) (63, 1.85032263398170471191e-01) (64, -9.28440093994140625000e-01) (65, 1.72574031352996826172e+00) (66, -2.58936613798141479492e-01) (67, -1.13590991497039794922e+00) (68, 1.09084141254425048828e+00) (69, 1.50000000000000000000e+03) (70, 1.50000000000000000000e+03) (71, -2.64425487518310546875e+01) (72, -2.65970268249511718750e+01) (73, -6.15598380565643310547e-01) (74, 1.27003860473632812500e+02) (75, 4.27858322858810424805e-01) (76, 1.50000000000000000000e+03) (77, -2.83596545457839965820e-01) (78, 1.50000000000000000000e+03) (79, 1.50000000000000000000e+03) (80, -2.63803749084472656250e+01) (81, -2.64979991912841796875e+01) (82, -5.48281073570251464844e-01) (83, 1.26958969116210937500e+02) (84, 5.16095876693725585938e-01) (85, 1.50000000000000000000e+03) (86, 4.32421147823333740234e-01) (87, 1.50000000000000000000e+03) (88, -2.64951019287109375000e+01) (89, -2.65289802551269531250e+01) (90, 6.07187040150165557861e-02) (91, 1.50000000000000000000e+03) (92, 1.50000000000000000000e+03) (93, -4.93260025978088378906e-02) (94, -3.48436927795410156250e+01) (95, 1.50000000000000000000e+03) (96, -8.50961923599243164062e-01) (97, -2.73416614532470703125e+01) (98, 1.50000000000000000000e+03) (99, 1.50000000000000000000e+03) (100, -1.16615414619445800781e-01) (101, 1.50000000000000000000e+03) (102, 1.50000000000000000000e+03) (103, -6.50320672988891601562e+00) (104, -9.43795776367187500000e+01) (105, -2.64849662780761718750e+01) (106, -2.97021120786666870117e-01) (107, 1.50000000000000000000e+03) (108, -2.66040515899658203125e+01) (109, 1.27382019042968750000e+02) (110, 5.05747318267822265625e-01) (111, -2.64860687255859375000e+01) (112, -2.50317420959472656250e+01) (113, -4.30197626352310180664e-01) (114, 2.69134521484375000000e+01) (115, -1.59569120407104492188e+00) (116, -8.49766656756401062012e-02) (117, -1.60212114453315734863e-01) (118, -8.10949802398681640625e-02) (119, -4.01109695434570312500e-01) (120, 5.78706054687500000000e+01) (121, -3.95695179700851440430e-01) (122, 7.04175978899002075195e-02) (123, -3.44878356933593750000e+02) (124, 6.87585711479187011719e-01) (125, 2.90930598974227905273e-01) (0, 3.94384086132049560547e-01) (1, -2.47798748016357421875e+01) (2, 3.49819153547286987305e-01) (3, 5.09828031063079833984e-01) (4, 5.53432404994964599609e-01) (5, 1.50000000000000000000e+03) (6, 7.44936168193817138672e-01) (7, -2.48006381988525390625e+01) (8, -2.87505412101745605469e+00) (9, 5.13590693473815917969e-01) (10, 1.40822291374206542969e+00) (11, -1.33402404785156250000e+01) (12, 1.81259006261825561523e-01) (13, 5.00843107700347900391e-01) (14, 1.50000000000000000000e+03) (15, 8.93072247505187988281e-01) (16, 1.50000000000000000000e+03) (17, 8.81803572177886962891e-01) (18, -1.23351313173770904541e-01) (19, -1.70876502990722656250e+01) (20, 3.95376324653625488281e-01) (21, 1.21023893356323242188e+00) (22, 1.50000000000000000000e+03) (23, 1.50000000000000000000e+03) (24, 2.53824310302734375000e+01) (25, 2.74391937255859375000e+01) (26, 2.42499732971191406250e+01) (27, 1.30830535888671875000e+01) (28, 1.96271955966949462891e+00) (29, 2.53567085266113281250e+01) (30, 2.73206672668457031250e+01) (31, 1.80293594360351562500e+02) (32, 1.50000000000000000000e+03) (33, 2.76978790760040283203e-01) (34, 1.50000000000000000000e+03) (35, 4.76135432720184326172e-01) (36, 1.25685513019561767578e+00) (37, 1.50000000000000000000e+03) (38, 6.66504025459289550781e-01) (39, 3.46570819616317749023e-01) (40, 1.11202609539031982422e+00) (41, 2.30674400329589843750e+01) (42, 2.69005298614501953125e+01) (43, 4.44815754890441894531e-01) (44, 1.55395638942718505859e+00) (45, -8.29984588623046875000e+01) (46, 1.50000000000000000000e+03) (47, 1.17578291893005371094e+00) (48, 1.03379535675048828125e+00) (49, 1.50000000000000000000e+03) (50, 7.99056947231292724609e-01) (51, 6.94212922826409339905e-03) (52, 4.79320257902145385742e-01) (53, 4.95842397212982177734e-01) (54, -1.32880374789237976074e-01) (55, 4.77227020263671875000e+01) (56, 1.50000000000000000000e+03) (57, 7.32214975357055664062e+00) (58, 1.50000000000000000000e+03) (59, 1.50000000000000000000e+03) (60, 1.44013261795043945312e+00) (61, 1.68391108512878417969e-01) (62, -2.06405496597290039062e+00) (63, 5.91587066650390625000e-01) (64, 9.38128829002380371094e-01) (65, -3.51330250501632690430e-01) (66, 4.31133896112442016602e-01) (67, 7.02066004276275634766e-01) (68, -1.71459659934043884277e-01) (69, 2.73539237976074218750e+01) (70, 1.30697021484375000000e+01) (71, 1.50000000000000000000e+03) (72, 1.50000000000000000000e+03) (73, 1.00583982467651367188e+00) (74, 1.50000000000000000000e+03) (75, 5.03270626068115234375e-01) (76, 2.53453102111816406250e+01) (77, 1.63891744613647460938e+00) (78, 2.72324542999267578125e+01) (79, 1.30033874511718750000e+01) (80, 1.50000000000000000000e+03) (81, 1.50000000000000000000e+03) (82, 1.03665602207183837891e+00) (83, 1.50000000000000000000e+03) (84, 4.91550356149673461914e-01) (85, 2.51985015869140625000e+01) (86, 4.31370466947555541992e-01) (87, 1.50000000000000000000e+03) (88, 1.50000000000000000000e+03) (89, 1.50000000000000000000e+03) (90, -2.72040081024169921875e+00) (91, 2.52245502471923828125e+01) (92, 1.30997009277343750000e+01) (93, 4.94978159666061401367e-01) (94, 1.03864173889160156250e+01) (95, 1.50000000000000000000e+03) (96, 1.72521936893463134766e+00) (97, 1.50000000000000000000e+03) (98, 2.71967849731445312500e+01) (99, 1.30136528015136718750e+01) (100, 3.11783224344253540039e-01) (101, 1.50000000000000000000e+03) (102, 1.50000000000000000000e+03) (103, 5.37035064697265625000e+01) (104, 5.37703704833984375000e+01) (105, 1.50000000000000000000e+03) (106, 3.96186172962188720703e-01) (107, -1.59527496337890625000e+02) (108, 1.50000000000000000000e+03) (109, 1.50000000000000000000e+03) (110, -7.04096755981445312500e+01) (111, 1.50000000000000000000e+03) (112, 1.50000000000000000000e+03) (113, 1.20676778256893157959e-01) (114, 1.50000000000000000000e+03) (115, 1.61754608154296875000e+00) (116, 8.71894598007202148438e-01) (117, 3.74857813119888305664e-01) (118, 6.14594280719757080078e-01) (119, 4.07669186592102050781e-01) (120, 1.18643307685852050781e+00) (121, 6.24821543693542480469e-01) (122, 1.11671745777130126953e+00) (123, 1.50000000000000000000e+03) (124, 1.31128057837486267090e-01) (125, 4.73484456539154052734e-01) (0, -3.48948402404785156250e+01) (1, 1.50000000000000000000e+03) (2, -1.12704265117645263672e+00) (3, -3.55652630329132080078e-01) (4, 1.90233245491981506348e-01) (5, -2.46187057495117187500e+01) (6, 2.51463860273361206055e-01) (7, 1.50000000000000000000e+03) (8, 2.18032583594322204590e-01) (9, -3.11097353696823120117e-01) (10, -5.50948202610015869141e-01) (11, 1.03559967041015625000e+02) (12, 2.36157369613647460938e+00) (13, -4.75849062204360961914e-01) (14, -2.35856113433837890625e+01) (15, -1.34765490889549255371e-01) (16, -2.25599975585937500000e+01) (17, -5.89994072914123535156e-01) (18, 7.83605098724365234375e-01) (19, 1.34626968383789062500e+02) (20, -7.43179845809936523438e+00) (21, 2.26658642292022705078e-01) (22, -7.48362884521484375000e+01) (23, -7.48513031005859375000e+01) (24, 1.50000000000000000000e+03) (25, 1.50000000000000000000e+03) (26, 1.50000000000000000000e+03) (27, 1.50000000000000000000e+03) (28, -5.09382486343383789062e-01) (29, 1.50000000000000000000e+03) (30, 1.50000000000000000000e+03) (31, -8.01032733917236328125e+00) (32, 1.50000000000000000000e+03) (33, -1.15641367435455322266e+00) (34, 1.50000000000000000000e+03) (35, -3.07848811149597167969e-01) (36, 1.39115378260612487793e-01) (37, 1.50000000000000000000e+03) (38, -4.39024746417999267578e-01) (39, 2.55966395139694213867e-01) (40, -3.50304055213928222656e+00) (41, -3.86765551567077636719e+00) (42, 1.50000000000000000000e+03) (43, -8.67385327816009521484e-01) (44, 1.00451141595840454102e-01) (45, 1.50000000000000000000e+03) (46, -2.39352264404296875000e+01) (47, -1.51096165180206298828e+00) (48, 8.31965506076812744141e-02) (49, 1.24151618957519531250e+02) (50, -3.54498076438903808594e+00) (51, -5.02068340778350830078e-01) (52, -5.19415318965911865234e-01) (53, -2.40749582648277282715e-01) (54, 3.13907563686370849609e-01) (55, 8.21347177028656005859e-01) (56, 1.50000000000000000000e+03) (57, -4.06824409961700439453e-01) (58, 1.50000000000000000000e+03) (59, 1.25809127807617187500e+02) (60, -1.58194208145141601562e+00) (61, 3.20343828201293945312e+00) (62, 8.26413917541503906250e+00) (63, -6.85499727725982666016e-01) (64, -7.77640998363494873047e-01) (65, 5.18542194366455078125e+00) (66, 1.31728124618530273438e+00) (67, -5.14136373996734619141e-01) (68, 7.86002016067504882812e+00) (69, 1.50000000000000000000e+03) (70, 1.50000000000000000000e+03) (71, -2.33293876647949218750e+01) (72, -2.38916549682617187500e+01) (73, 7.83833742141723632812e-01) (74, 1.24251327514648437500e+02) (75, -1.48591339588165283203e+00) (76, 1.50000000000000000000e+03) (77, 5.23246526718139648438e-01) (78, 1.50000000000000000000e+03) (79, 1.50000000000000000000e+03) (80, -2.33355236053466796875e+01) (81, -2.39509162902832031250e+01) (82, 6.70789122581481933594e-01) (83, 1.24128112792968750000e+02) (84, -1.42880785465240478516e+00) (85, 1.50000000000000000000e+03) (86, -1.54141414165496826172e+00) (87, 1.50000000000000000000e+03) (88, -2.39379959106445312500e+01) (89, -2.38023796081542968750e+01) (90, -1.98453143239021301270e-01) (91, 1.50000000000000000000e+03) (92, 1.50000000000000000000e+03) (93, -1.58739313483238220215e-01) (94, -8.54073584079742431641e-01) (95, 1.50000000000000000000e+03) (96, 2.14329957962036132812e-01) (97, -2.51415081024169921875e+01) (98, 1.50000000000000000000e+03) (99, 1.50000000000000000000e+03) (100, -1.28799176216125488281e+00) (101, 1.50000000000000000000e+03) (102, 1.50000000000000000000e+03) (103, -1.93921625614166259766e-01) (104, -9.59528267383575439453e-01) (105, -2.38216133117675781250e+01) (106, -1.96531996130943298340e-01) (107, 1.50000000000000000000e+03) (108, -2.38039226531982421875e+01) (109, 1.24366806030273437500e+02) (110, 1.13084578514099121094e+00) (111, -2.39310913085937500000e+01) (112, -2.23963050842285156250e+01) (113, -2.27387309074401855469e+00) (114, 2.50406723022460937500e+01) (115, -2.03935360908508300781e+00) (116, -1.37621417641639709473e-01) (117, -1.25834381580352783203e+00) (118, -3.32754194736480712891e-01) (119, 2.86408841609954833984e-01) (120, 1.14150360107421875000e+02) (121, 1.67080745100975036621e-01) (122, -8.63634049892425537109e-03) (123, -3.05886779785156250000e+02) (124, 6.54091686010360717773e-02) (125, -1.56367313861846923828e+00) (0, -8.09020996093750000000e+00) (1, -2.43235378265380859375e+01) (2, -1.89861965179443359375e+00) (3, -1.59460127353668212891e+00) (4, -1.78419685363769531250e+01) (5, 1.48995678710937500000e+03) (6, 6.56527400016784667969e-01) (7, -2.54436912536621093750e+01) (8, -2.78077602386474609375e+00) (9, -5.90405166149139404297e-01) (10, -1.30608377456665039062e+01) (11, 6.76828460693359375000e+01) (12, -2.04606160521507263184e-01) (13, -6.49839222431182861328e-01) (14, 1.48278137207031250000e+03) (15, 3.09828728437423706055e-01) (16, 1.48336779785156250000e+03) (17, -1.64799019694328308105e-01) (18, -1.89783895015716552734e+00) (19, -3.26582193374633789062e+00) (20, 2.71705597639083862305e-01) (21, -2.52310061454772949219e+00) (22, 1.50000000000000000000e+03) (23, 1.50000000000000000000e+03) (24, 5.49471282958984375000e+01) (25, 2.72811927795410156250e+01) (26, 2.43768615722656250000e+01) (27, 4.24734039306640625000e+01) (28, 3.05529928207397460938e+00) (29, 6.54378967285156250000e+01) (30, 2.72806224822998046875e+01) (31, -4.66337524414062500000e+02) (32, 1.50000000000000000000e+03) (33, -1.52597397565841674805e-01) (34, 1.50000000000000000000e+03) (35, -3.32279610633850097656e+00) (36, -8.38829803466796875000e+00) (37, 1.50000000000000000000e+03) (38, -2.54076690673828125000e+01) (39, -1.77054512500762939453e+00) (40, -6.53116455078125000000e+01) (41, -5.24725914001464843750e-01) (42, 2.69440422058105468750e+01) (43, -1.05811037123203277588e-01) (44, 1.37305355072021484375e+00) (45, 1.59611724853515625000e+02) (46, 1.50000000000000000000e+03) (47, 1.19050550460815429688e+00) (48, -2.37125682830810546875e+00) (49, 1.50000000000000000000e+03) (50, 1.96520403027534484863e-01) (51, -3.88730583190917968750e+01) (52, -6.10634918212890625000e+01) (53, 5.90127170085906982422e-01) (54, -1.23478539288043975830e-01) (55, 8.83403396606445312500e+00) (56, 1.50000000000000000000e+03) (57, -2.56507663726806640625e+01) (58, 1.50000000000000000000e+03) (59, 1.50000000000000000000e+03) (60, -2.05660462379455566406e+00) (61, 2.16912239789962768555e-01) (62, -1.15289106965065002441e-01) (63, -5.93864321708679199219e-01) (64, 1.88486680388450622559e-01) (65, -4.07812166213989257812e+00) (66, -1.58300250768661499023e-02) (67, -2.58569512516260147095e-02) (68, 1.04281373322010040283e-01) (69, 2.72929229736328125000e+01) (70, 4.24572410583496093750e+01) (71, 1.50000000000000000000e+03) (72, 1.50000000000000000000e+03) (73, 3.33408206701278686523e-01) (74, 1.50000000000000000000e+03) (75, 2.49238625168800354004e-01) (76, 2.53148727416992187500e+01) (77, 5.26583015918731689453e-01) (78, 2.73909492492675781250e+01) (79, 4.24376106262207031250e+01) (80, 1.50000000000000000000e+03) (81, 1.50000000000000000000e+03) (82, 3.28714936971664428711e-01) (83, 1.50000000000000000000e+03) (84, 1.17111921310424804688e-01) (85, 2.52209300994873046875e+01) (86, -1.51172685623168945312e+01) (87, 1.50000000000000000000e+03) (88, 1.50000000000000000000e+03) (89, 1.50000000000000000000e+03) (90, -1.52081937789916992188e+01) (91, 2.52098007202148437500e+01) (92, 4.24333343505859375000e+01) (93, 2.33765952289104461670e-02) (94, 3.30972766876220703125e+00) (95, 1.50000000000000000000e+03) (96, 7.65623390674591064453e-01) (97, 1.50000000000000000000e+03) (98, 1.27338966369628906250e+02) (99, 4.23992767333984375000e+01) (100, -1.97556483745574951172e+00) (101, 1.50000000000000000000e+03) (102, 1.50000000000000000000e+03) (103, -2.46613240242004394531e+00) (104, -6.74004077911376953125e-01) (105, 1.50000000000000000000e+03) (106, -1.96938086301088333130e-02) (107, 4.77653503417968750000e+00) (108, 1.50000000000000000000e+03) (109, 1.44695654296875000000e+03) (110, -1.70934204101562500000e+02) (111, 1.50000000000000000000e+03) (112, 1.50000000000000000000e+03) (113, -6.62851257324218750000e+02) (114, 1.44189379882812500000e+03) (115, 5.50325155258178710938e+00) (116, 4.97693955898284912109e-01) (117, -8.61714899539947509766e-01) (118, 4.14901137351989746094e-01) (119, -1.56603097915649414062e+01) (120, -2.04008529663085937500e+02) (121, 1.88569128513336181641e-01) (122, 4.40748304128646850586e-01) (123, 1.49969055175781250000e+03) (124, -1.53689348697662353516e+00) (125, -1.52890558242797851562e+01) (0, -1.07803329825401306152e-01) (1, -2.41189746856689453125e+01) (2, -2.18784594535827636719e+00) (3, -1.35659408569335937500e+00) (4, 3.56958538293838500977e-01) (5, 1.50000000000000000000e+03) (6, -1.49674579501152038574e-01) (7, -2.51037292480468750000e+01) (8, -1.18284666538238525391e+00) (9, 1.62830024957656860352e-01) (10, -1.45654261112213134766e-01) (11, -6.21064996719360351562e+00) (12, 1.00271262228488922119e-01) (13, -7.07411915063858032227e-02) (14, 1.50000000000000000000e+03) (15, 8.52074697613716125488e-02) (16, 1.50000000000000000000e+03) (17, -6.82710838317871093750e+00) (18, -1.36882138252258300781e+00) (19, -9.33476257324218750000e+00) (20, -7.17575311660766601562e-01) (21, -4.61640506982803344727e-02) (22, 1.50000000000000000000e+03) (23, 1.50000000000000000000e+03) (24, 2.42287483215332031250e+01) (25, 2.70755577087402343750e+01) (26, 2.65729675292968750000e+01) (27, -1.02924346923828125000e-01) (28, 5.24676144123077392578e-01) (29, 2.66247596740722656250e+01) (30, 2.70276145935058593750e+01) (31, 7.70176315307617187500e+01) (32, 1.50000000000000000000e+03) (33, -8.53912055492401123047e-01) (34, 1.50000000000000000000e+03) (35, -3.22117060422897338867e-01) (36, -2.76031225919723510742e-01) (37, 1.50000000000000000000e+03) (38, -5.32280623912811279297e-01) (39, -1.28650352358818054199e-01) (40, 1.74698901176452636719e+00) (41, 3.28420162200927734375e-01) (42, 2.65995101928710937500e+01) (43, 4.53580528497695922852e-01) (44, 5.42290687561035156250e-01) (45, -7.49105377197265625000e+01) (46, 1.50000000000000000000e+03) (47, -6.49024009704589843750e-01) (48, 1.11602745950222015381e-01) (49, 1.50000000000000000000e+03) (50, 7.08795413374900817871e-02) (51, -1.27913117408752441406e+00) (52, -3.95135402679443359375e-01) (53, -5.26704251766204833984e-01) (54, -1.25568628311157226562e+00) (55, 7.67262983322143554688e+00) (56, 1.50000000000000000000e+03) (57, 1.62525773048400878906e+00) (58, 1.50000000000000000000e+03) (59, 1.50000000000000000000e+03) (60, 2.95416331291198730469e+00) (61, -9.23508182168006896973e-02) (62, -1.35294208526611328125e+01) (63, -5.67788541316986083984e-01) (64, 1.46030211448669433594e+00) (65, 5.64070653915405273438e+00) (66, 3.76271784305572509766e-01) (67, -2.68823206424713134766e-01) (68, 1.75466254353523254395e-01) (69, 2.70326843261718750000e+01) (70, 2.39677429199218750000e-02) (71, 1.50000000000000000000e+03) (72, 1.50000000000000000000e+03) (73, 7.27503955364227294922e-01) (74, 1.50000000000000000000e+03) (75, -1.61095917224884033203e+00) (76, 2.68102359771728515625e+01) (77, 7.36731886863708496094e-01) (78, 2.71673297882080078125e+01) (79, -5.41419982910156250000e-02) (80, 1.50000000000000000000e+03) (81, 1.50000000000000000000e+03) (82, 5.38785159587860107422e-01) (83, 1.50000000000000000000e+03) (84, -1.57612550258636474609e+00) (85, 2.62774925231933593750e+01) (86, -1.65380132198333740234e+00) (87, 1.50000000000000000000e+03) (88, 1.50000000000000000000e+03) (89, 1.50000000000000000000e+03) (90, -3.00880956649780273438e+00) (91, 2.66423454284667968750e+01) (92, -1.17641448974609375000e-01) (93, -9.97463703155517578125e-01) (94, 4.52669769525527954102e-01) (95, 1.50000000000000000000e+03) (96, 3.18431884050369262695e-01) (97, 1.50000000000000000000e+03) (98, 2.70047054290771484375e+01) (99, 5.47294616699218750000e-02) (100, -1.71919882297515869141e-01) (101, 1.50000000000000000000e+03) (102, 1.50000000000000000000e+03) (103, 1.94893455505371093750e+00) (104, 6.42827081680297851562e+00) (105, 1.50000000000000000000e+03) (106, 4.38600033521652221680e-01) (107, -1.72211547851562500000e+02) (108, 1.50000000000000000000e+03) (109, 1.50000000000000000000e+03) (110, -1.76011524200439453125e+01) (111, 1.50000000000000000000e+03) (112, 1.50000000000000000000e+03) (113, -7.49830007553100585938e-01) (114, 1.50000000000000000000e+03) (115, -2.64140293002128601074e-02) (116, -6.19705691933631896973e-02) (117, 4.34153228998184204102e-01) (118, -6.15176558494567871094e-01) (119, 5.13628840446472167969e-01) (120, 1.46371353149414062500e+02) (121, 1.11063218116760253906e+00) (122, 4.63301479816436767578e-01) (123, 1.50000000000000000000e+03) (124, -1.47190845012664794922e+00) (125, -1.71117675304412841797e+00) (0, 3.14151436090469360352e-01) (1, 1.50000000000000000000e+03) (2, 3.06444853544235229492e-01) (3, 1.92950055003166198730e-01) (4, -4.62810814380645751953e-01) (5, -2.57675704956054687500e+01) (6, 1.61415383219718933105e-01) (7, 1.50000000000000000000e+03) (8, -3.55378597974777221680e-01) (9, 2.05148473381996154785e-01) (10, -8.74299034476280212402e-02) (11, 2.12520141601562500000e+02) (12, 8.97864162921905517578e-01) (13, 3.82865518331527709961e-01) (14, -2.59670352935791015625e+01) (15, 3.52242588996887207031e+00) (16, -2.48157997131347656250e+01) (17, -7.76779711246490478516e-01) (18, 2.38758301734924316406e+00) (19, 6.87399108886718750000e+02) (20, -5.60092806816101074219e-01) (21, -6.55963957309722900391e-01) (22, -7.37070922851562500000e+01) (23, -7.36953582763671875000e+01) (24, 1.50000000000000000000e+03) (25, 1.50000000000000000000e+03) (26, 1.50000000000000000000e+03) (27, 1.50000000000000000000e+03) (28, -4.84431505203247070312e+00) (29, 1.50000000000000000000e+03) (30, 1.50000000000000000000e+03) (31, -8.01682186126708984375e+00) (32, 1.50000000000000000000e+03) (33, 2.42994740605354309082e-01) (34, 1.50000000000000000000e+03) (35, 8.48663449287414550781e-02) (36, -2.01951742172241210938e-01) (37, 1.50000000000000000000e+03) (38, 9.90565344691276550293e-02) (39, 2.92040407657623291016e-01) (40, 2.59740203619003295898e-01) (41, -2.58114385604858398438e+00) (42, 1.50000000000000000000e+03) (43, -3.14304381608963012695e-01) (44, -7.16327548027038574219e-01) (45, 1.50000000000000000000e+03) (46, -2.65025291442871093750e+01) (47, 3.02961558103561401367e-01) (48, 3.00194442272186279297e-01) (49, 1.27137710571289062500e+02) (50, -1.92539799213409423828e+00) (51, 5.09453952312469482422e-01) (52, -1.11402504146099090576e-01) (53, 4.52002435922622680664e-01) (54, 3.11239063739776611328e-01) (55, 4.94109064340591430664e-01) (56, 1.50000000000000000000e+03) (57, -3.34543615579605102539e-01) (58, 1.50000000000000000000e+03) (59, 1.27294075012207031250e+02) (60, -4.82049036026000976562e+00) (61, 8.03807854652404785156e-01) (62, 9.65789413452148437500e+00) (63, 1.52926566079258918762e-02) (64, -2.47114062309265136719e+00) (65, 1.80092239379882812500e+00) (66, 6.69334754347801208496e-02) (67, -3.17449498176574707031e+00) (68, 1.09757685661315917969e+00) (69, 1.50000000000000000000e+03) (70, 1.50000000000000000000e+03) (71, -2.64343719482421875000e+01) (72, -2.65319938659667968750e+01) (73, -5.83514034748077392578e-01) (74, 1.27105934143066406250e+02) (75, -7.64504611492156982422e-01) (76, 1.50000000000000000000e+03) (77, -6.65117025375366210938e-01) (78, 1.50000000000000000000e+03) (79, 1.50000000000000000000e+03) (80, -2.64449577331542968750e+01) (81, -2.64678859710693359375e+01) (82, -4.61289703845977783203e-01) (83, 1.27062568664550781250e+02) (84, 4.14693266153335571289e-01) (85, 1.50000000000000000000e+03) (86, 2.79463410377502441406e-01) (87, 1.50000000000000000000e+03) (88, -2.65805034637451171875e+01) (89, -2.65848503112792968750e+01) (90, 3.44390690326690673828e-01) (91, 1.50000000000000000000e+03) (92, 1.50000000000000000000e+03) (93, 2.05424383282661437988e-01) (94, -3.48718910217285156250e+01) (95, 1.50000000000000000000e+03) (96, -1.02776265144348144531e+00) (97, -2.73612747192382812500e+01) (98, 1.50000000000000000000e+03) (99, 1.50000000000000000000e+03) (100, 4.98080663383007049561e-02) (101, 1.50000000000000000000e+03) (102, 1.50000000000000000000e+03) (103, -6.50262212753295898438e+00) (104, -1.56534776687622070312e+01) (105, -2.65299224853515625000e+01) (106, 1.37019619345664978027e-01) (107, 1.50000000000000000000e+03) (108, -2.64555015563964843750e+01) (109, 1.27300941467285156250e+02) (110, 2.40779086947441101074e-01) (111, -2.66021003723144531250e+01) (112, -2.50827083587646484375e+01) (113, -3.11830729246139526367e-01) (114, 2.69010162353515625000e+01) (115, 6.96641921997070312500e-01) (116, -1.89032286405563354492e-01) (117, -2.57711708545684814453e-01) (118, 7.90551900863647460938e-01) (119, -6.43842041492462158203e-01) (120, 6.38424835205078125000e+01) (121, -3.41704905033111572266e-01) (122, 5.06749227643013000488e-02) (123, -3.44964050292968750000e+02) (124, 6.77445471286773681641e-01) (125, 3.75099331140518188477e-01) (0, 1.22463859617710113525e-01) (1, -2.36546897888183593750e+01) (2, 9.08668115735054016113e-02) (3, 3.28400433063507080078e-01) (4, 7.02774763107299804688e-01) (5, 1.50000000000000000000e+03) (6, 2.19316810369491577148e-01) (7, -2.69559211730957031250e+01) (8, -1.01191234588623046875e+00) (9, 5.42320907115936279297e-01) (10, 1.37409663200378417969e+00) (11, -2.38994455337524414062e+00) (12, 3.29005897045135498047e-01) (13, 1.31279572844505310059e-01) (14, 1.50000000000000000000e+03) (15, 3.51122081279754638672e-01) (16, 1.50000000000000000000e+03) (17, 1.05109012126922607422e+00) (18, -3.61470375061035156250e+01) (19, -1.35565986633300781250e+01) (20, -4.44599926471710205078e-01) (21, 7.24850416183471679688e-01) (22, 1.50000000000000000000e+03) (23, 1.50000000000000000000e+03) (24, 2.41228713989257812500e+01) (25, 2.72891521453857421875e+01) (26, 2.40615253448486328125e+01) (27, 1.29473190307617187500e+01) (28, 4.98472332954406738281e-01) (29, 2.39384651184082031250e+01) (30, 2.72406749725341796875e+01) (31, 8.96409072875976562500e+01) (32, 1.50000000000000000000e+03) (33, -1.45797848701477050781e-01) (34, 1.50000000000000000000e+03) (35, 3.15866053104400634766e-01) (36, 5.11694610118865966797e-01) (37, 1.50000000000000000000e+03) (38, 2.06539183855056762695e-01) (39, -1.06168821454048156738e-01) (40, 5.55038601160049438477e-02) (41, 1.02032653987407684326e-01) (42, 2.68161277770996093750e+01) (43, 7.69060194492340087891e-01) (44, 1.53342545032501220703e+00) (45, -7.54864044189453125000e+01) (46, 1.50000000000000000000e+03) (47, 2.80309700965881347656e+00) (48, 5.31711935997009277344e-01) (49, 1.50000000000000000000e+03) (50, 9.67647656798362731934e-02) (51, 6.31958365440368652344e-01) (52, 2.40643098950386047363e-01) (53, 1.12395636737346649170e-01) (54, -5.18631756305694580078e-01) (55, 4.04404067993164062500e+00) (56, 1.50000000000000000000e+03) (57, 6.65611028671264648438e-01) (58, 1.50000000000000000000e+03) (59, 1.50000000000000000000e+03) (60, 3.58594357967376708984e-01) (61, 5.63087761402130126953e-01) (62, -1.46338948979973793030e-02) (63, 8.76526758074760437012e-02) (64, 2.50213086605072021484e-01) (65, -1.78998351097106933594e-01) (66, 1.06015431880950927734e+00) (67, -7.98590574413537979126e-03) (68, 3.58076214790344238281e-01) (69, 2.72792034149169921875e+01) (70, 1.29651870727539062500e+01) (71, 1.50000000000000000000e+03) (72, 1.50000000000000000000e+03) (73, 1.12060439586639404297e+00) (74, 1.50000000000000000000e+03) (75, -1.00522190332412719727e-01) (76, 2.66903419494628906250e+01) (77, 8.73193740844726562500e-01) (78, 2.73661003112792968750e+01) (79, 1.29311447143554687500e+01) (80, 1.50000000000000000000e+03) (81, 1.50000000000000000000e+03) (82, 1.04161524772644042969e+00) (83, 1.50000000000000000000e+03) (84, -1.56804546713829040527e-01) (85, 2.40133876800537109375e+01) (86, -3.78837883472442626953e-02) (87, 1.50000000000000000000e+03) (88, 1.50000000000000000000e+03) (89, 1.50000000000000000000e+03) (90, -3.81794631481170654297e-01) (91, 2.67385463714599609375e+01) (92, 1.29706916809082031250e+01) (93, 1.81533887982368469238e-01) (94, 9.81820523738861083984e-01) (95, 1.50000000000000000000e+03) (96, 9.17936503887176513672e-01) (97, 1.50000000000000000000e+03) (98, 2.72712593078613281250e+01) (99, 1.30400924682617187500e+01) (100, -1.26334093511104583740e-02) (101, 1.50000000000000000000e+03) (102, 1.50000000000000000000e+03) (103, 2.19676926732063293457e-01) (104, 3.33181440830230712891e-01) (105, 1.50000000000000000000e+03) (106, 4.64600414037704467773e-01) (107, -1.76129714965820312500e+02) (108, 1.50000000000000000000e+03) (109, 1.50000000000000000000e+03) (110, -8.09510707855224609375e+00) (111, 1.50000000000000000000e+03) (112, 1.50000000000000000000e+03) (113, -4.86261036712676286697e-04) (114, 1.50000000000000000000e+03) (115, 3.32618236541748046875e-01) (116, 4.24289166927337646484e-01) (117, 1.22975742816925048828e+00) (118, 2.97878623008728027344e-01) (119, 3.06608140468597412109e-01) (120, 9.00772666931152343750e+00) (121, 1.02542173862457275391e+00) (122, 8.19079160690307617188e-01) (123, 1.50000000000000000000e+03) (124, 2.03352093696594238281e-01) (125, -8.19717440754175186157e-03) (0, 1.93658232688903808594e-01) (1, 1.50000000000000000000e+03) (2, -1.38791874051094055176e-01) (3, 2.35157266259193420410e-01) (4, 1.78281679749488830566e-01) (5, -2.12101879119873046875e+01) (6, -4.68311935663223266602e-01) (7, 1.50000000000000000000e+03) (8, 3.63296180963516235352e-01) (9, -3.15474450588226318359e-01) (10, -5.51127791404724121094e-01) (11, 6.41196777343750000000e+02) (12, -1.06490468978881835938e+00) (13, 2.87205073982477188110e-02) (14, -2.20747299194335937500e+01) (15, 1.40700464248657226562e+01) (16, -1.91126632690429687500e+01) (17, -1.95246040821075439453e-01) (18, 1.30410766601562500000e+00) (19, 3.22571563720703125000e+02) (20, -1.88624948263168334961e-01) (21, -1.61199554800987243652e-01) (22, -7.88237915039062500000e+01) (23, -7.87856445312500000000e+01) (24, 1.50000000000000000000e+03) (25, 1.50000000000000000000e+03) (26, 1.50000000000000000000e+03) (27, 1.50000000000000000000e+03) (28, -1.10017740726470947266e+00) (29, 1.50000000000000000000e+03) (30, 1.50000000000000000000e+03) (31, -1.96665172576904296875e+01) (32, 1.50000000000000000000e+03) (33, 3.63916531205177307129e-02) (34, 1.50000000000000000000e+03) (35, 4.52007442712783813477e-01) (36, -1.20272111892700195312e+00) (37, 1.50000000000000000000e+03) (38, -5.60173988342285156250e-01) (39, 5.42406857013702392578e-01) (40, -1.09698839187622070312e+01) (41, -1.62888832092285156250e+01) (42, 1.50000000000000000000e+03) (43, -3.51257264614105224609e-01) (44, -1.14152276515960693359e+00) (45, 1.50000000000000000000e+03) (46, -2.30991344451904296875e+01) (47, -2.81373769044876098633e-01) (48, -6.20159327983856201172e-01) (49, 1.23009017944335937500e+02) (50, -2.40387588739395141602e-01) (51, -4.05760824680328369141e-01) (52, 4.09508973360061645508e-01) (53, -4.38165098428726196289e-01) (54, 8.21819454431533813477e-02) (55, -4.72672909498214721680e-01) (56, 1.50000000000000000000e+03) (57, -1.16245341300964355469e+00) (58, 1.50000000000000000000e+03) (59, 1.23810073852539062500e+02) (60, -1.86929777264595031738e-01) (61, 2.94750952720642089844e+00) (62, 3.48620462417602539062e+00) (63, -1.28688141703605651855e-01) (64, -1.66180431842803955078e+00) (65, 1.07989287376403808594e+00) (66, 1.17216043174266815186e-01) (67, -1.06028564274311065674e-01) (68, 1.72188532352447509766e+00) (69, 1.50000000000000000000e+03) (70, 1.50000000000000000000e+03) (71, -2.28512039184570312500e+01) (72, -2.31530609130859375000e+01) (73, -9.81822907924652099609e-02) (74, 1.23147506713867187500e+02) (75, -1.27686057239770889282e-02) (76, 1.50000000000000000000e+03) (77, -1.32028713822364807129e-01) (78, 1.50000000000000000000e+03) (79, 1.50000000000000000000e+03) (80, -2.29664974212646484375e+01) (81, -2.31546401977539062500e+01) (82, -7.13707357645034790039e-02) (83, 1.23117462158203125000e+02) (84, 3.02608549594879150391e-01) (85, 1.50000000000000000000e+03) (86, 1.53238177299499511719e-02) (87, 1.50000000000000000000e+03) (88, -2.31898460388183593750e+01) (89, -2.32735767364501953125e+01) (90, 2.05636974424123764038e-02) (91, 1.50000000000000000000e+03) (92, 1.50000000000000000000e+03) (93, 2.88401991128921508789e-01) (94, -3.48448486328125000000e+01) (95, 1.50000000000000000000e+03) (96, -1.02063708007335662842e-01) (97, -2.54436931610107421875e+01) (98, 1.50000000000000000000e+03) (99, 1.50000000000000000000e+03) (100, -1.17536497116088867188e+00) (101, 1.50000000000000000000e+03) (102, 1.50000000000000000000e+03) (103, -1.62758789062500000000e+01) (104, -1.64064064025878906250e+01) (105, -2.32575130462646484375e+01) (106, 1.39197379350662231445e-01) (107, 1.50000000000000000000e+03) (108, -2.32867050170898437500e+01) (109, 1.23721694946289062500e+02) (110, 1.42427635192871093750e+00) (111, -2.32764835357666015625e+01) (112, -1.94194335937500000000e+01) (113, 5.74906706809997558594e-01) (114, 2.26789550781250000000e+01) (115, -8.91460955142974853516e-01) (116, -1.62054777145385742188e-01) (117, -6.41132652759552001953e-01) (118, -1.53777688741683959961e-01) (119, 1.09196253120899200439e-01) (120, 7.07079162597656250000e+01) (121, 4.08752858638763427734e-01) (122, 3.62761795520782470703e-01) (123, -3.79691101074218750000e+02) (124, -2.67650753259658813477e-01) (125, -6.31728246808052062988e-02) (0, -7.39415585994720458984e-01) (1, 1.50000000000000000000e+03) (2, -1.65952786803245544434e-01) (3, -1.28298074007034301758e-01) (4, 7.04933330416679382324e-02) (5, -2.12349395751953125000e+01) (6, -3.29653948545455932617e-01) (7, 1.50000000000000000000e+03) (8, 3.06721717119216918945e-01) (9, 3.27336847782135009766e-01) (10, -5.58633863925933837891e-01) (11, 6.41110107421875000000e+02) (12, -1.01789724826812744141e+00) (13, -1.24402113258838653564e-01) (14, -2.19946632385253906250e+01) (15, 1.39365167617797851562e+01) (16, -1.89449462890625000000e+01) (17, -1.71058118343353271484e-01) (18, 1.80565595626831054688e+00) (19, 1.34486511230468750000e+02) (20, -2.66568809747695922852e-01) (21, -7.46784955263137817383e-02) (22, -7.88242492675781250000e+01) (23, -7.88661193847656250000e+01) (24, 1.50000000000000000000e+03) (25, 1.50000000000000000000e+03) (26, 1.50000000000000000000e+03) (27, 1.50000000000000000000e+03) (28, -3.73702812194824218750e+00) (29, 1.50000000000000000000e+03) (30, 1.50000000000000000000e+03) (31, -1.97602634429931640625e+01) (32, 1.50000000000000000000e+03) (33, -1.98247786611318588257e-02) (34, 1.50000000000000000000e+03) (35, 2.64159947633743286133e-01) (36, -1.08735346794128417969e+00) (37, 1.50000000000000000000e+03) (38, -8.88413548469543457031e-01) (39, 1.48351907730102539062e+00) (40, -4.67374944686889648438e+00) (41, -1.63240623474121093750e+01) (42, 1.50000000000000000000e+03) (43, -2.34899505972862243652e-01) (44, -1.23201823234558105469e+00) (45, 1.50000000000000000000e+03) (46, -2.31122093200683593750e+01) (47, -1.25958442687988281250e+00) (48, -4.83087718486785888672e-01) (49, 1.23126617431640625000e+02) (50, -6.89766883850097656250e-01) (51, -2.86164343357086181641e-01) (52, 1.05609321594238281250e+00) (53, -9.67901423573493957520e-02) (54, 1.60911425948143005371e-01) (55, -6.18777215480804443359e-01) (56, 1.50000000000000000000e+03) (57, -1.83253192901611328125e+00) (58, 1.50000000000000000000e+03) (59, 1.23760513305664062500e+02) (60, -1.06921494007110595703e-01) (61, 2.99900150299072265625e+00) (62, 3.54289674758911132812e+00) (63, -2.18563899397850036621e-01) (64, -1.65516936779022216797e+00) (65, 4.68814224004745483398e-01) (66, 1.38699293136596679688e-01) (67, -2.34691679477691650391e-01) (68, 1.65745365619659423828e+00) (69, 1.50000000000000000000e+03) (70, 1.50000000000000000000e+03) (71, -2.28483676910400390625e+01) (72, -2.31903362274169921875e+01) (73, -4.15855422616004943848e-02) (74, 1.23066703796386718750e+02) (75, 7.12105706334114074707e-02) (76, 1.50000000000000000000e+03) (77, -2.08783283829689025879e-01) (78, 1.50000000000000000000e+03) (79, 1.50000000000000000000e+03) (80, -2.29427795410156250000e+01) (81, -2.31980171203613281250e+01) (82, -5.85879087448120117188e-02) (83, 1.23145309448242187500e+02) (84, 1.49075403809547424316e-01) (85, 1.50000000000000000000e+03) (86, -1.07564158737659454346e-01) (87, 1.50000000000000000000e+03) (88, -2.32294578552246093750e+01) (89, -2.32915515899658203125e+01) (90, -1.65267940610647201538e-02) (91, 1.50000000000000000000e+03) (92, 1.50000000000000000000e+03) (93, -7.02450498938560485840e-02) (94, -5.82113170623779296875e+00) (95, 1.50000000000000000000e+03) (96, -1.41528621315956115723e-01) (97, -2.53596248626708984375e+01) (98, 1.50000000000000000000e+03) (99, 1.50000000000000000000e+03) (100, -1.28775072097778320312e+00) (101, 1.50000000000000000000e+03) (102, 1.50000000000000000000e+03) (103, -5.56488838195800781250e+01) (104, -1.63317146301269531250e+01) (105, -2.32312088012695312500e+01) (106, 3.08379769325256347656e-01) (107, 1.50000000000000000000e+03) (108, -2.31542854309082031250e+01) (109, 1.23744850158691406250e+02) (110, 2.06351828575134277344e+00) (111, -2.31203460693359375000e+01) (112, -1.94396591186523437500e+01) (113, 3.07149052619934082031e-01) (114, 2.26629409790039062500e+01) (115, -2.78684067726135253906e+00) (116, 2.09943771362304687500e-01) (117, -5.92041492462158203125e-01) (118, 3.35042178630828857422e-02) (119, 5.16727752983570098877e-02) (120, 6.31005783081054687500e+01) (121, 2.49008014798164367676e-01) (122, 3.59324276447296142578e-01) (123, -3.79601928710937500000e+02) (124, -3.59642684459686279297e-01) (125, -1.48067874833941459656e-02) (0, -1.16640336811542510986e-01) (1, -2.41266021728515625000e+01) (2, -1.73317945003509521484e+00) (3, -1.62501037120819091797e+00) (4, 1.60892724990844726562e-01) (5, 1.50000000000000000000e+03) (6, -1.49501338601112365723e-01) (7, -2.50734481811523437500e+01) (8, -5.86660265922546386719e-01) (9, 1.16150803864002227783e-01) (10, -1.21782124042510986328e-01) (11, -6.04211664199829101562e+00) (12, 9.98140990734100341797e-01) (13, -4.70203645527362823486e-02) (14, 1.50000000000000000000e+03) (15, 2.65953361988067626953e-01) (16, 1.50000000000000000000e+03) (17, -1.28177642822265625000e+01) (18, -1.01806724071502685547e+00) (19, -1.42618675231933593750e+01) (20, -6.61373853683471679688e-01) (21, 1.05921931564807891846e-01) (22, 1.50000000000000000000e+03) (23, 1.50000000000000000000e+03) (24, 2.43287162780761718750e+01) (25, 2.70919895172119140625e+01) (26, 2.67246856689453125000e+01) (27, 4.95033264160156250000e-02) (28, 5.06067097187042236328e-01) (29, 2.49170532226562500000e+01) (30, 2.70615749359130859375e+01) (31, 6.90887222290039062500e+01) (32, 1.50000000000000000000e+03) (33, -7.96454191207885742188e-01) (34, 1.50000000000000000000e+03) (35, -4.67365741729736328125e-01) (36, 2.56710469722747802734e-01) (37, 1.50000000000000000000e+03) (38, -6.47248506546020507812e-01) (39, 3.50450985133647918701e-02) (40, 5.75065076351165771484e-01) (41, 1.17587101459503173828e+00) (42, 2.65639400482177734375e+01) (43, 5.75234651565551757812e-01) (44, 4.64869111776351928711e-01) (45, -7.49502868652343750000e+01) (46, 1.50000000000000000000e+03) (47, -5.19731521606445312500e-01) (48, 8.13276246190071105957e-02) (49, 1.50000000000000000000e+03) (50, 5.94273395836353302002e-02) (51, -4.14814043045043945312e+00) (52, -4.40725326538085937500e-01) (53, -5.58406233787536621094e-01) (54, -8.63759696483612060547e-01) (55, 1.10762329101562500000e+02) (56, 1.50000000000000000000e+03) (57, 1.15601992607116699219e+00) (58, 1.50000000000000000000e+03) (59, 1.50000000000000000000e+03) (60, 1.34060621261596679688e+00) (61, -2.49656960368156433105e-01) (62, -1.34584465026855468750e+01) (63, -7.58316099643707275391e-01) (64, 2.28771710395812988281e+00) (65, -3.60898447036743164062e+00) (66, 3.88057500123977661133e-01) (67, -3.11931401491165161133e-01) (68, -1.86662092804908752441e-01) (69, 2.70284690856933593750e+01) (70, -1.10103607177734375000e-01) (71, 1.50000000000000000000e+03) (72, 1.50000000000000000000e+03) (73, 5.57866156101226806641e-01) (74, 1.50000000000000000000e+03) (75, -1.02982342243194580078e+00) (76, 2.68008499145507812500e+01) (77, 7.89298713207244873047e-01) (78, 2.71138439178466796875e+01) (79, -9.38072204589843750000e-02) (80, 1.50000000000000000000e+03) (81, 1.50000000000000000000e+03) (82, 6.28581166267395019531e-01) (83, 1.50000000000000000000e+03) (84, -1.43504810333251953125e+00) (85, 2.63639144897460937500e+01) (86, -1.61856257915496826172e+00) (87, 1.50000000000000000000e+03) (88, 1.50000000000000000000e+03) (89, 1.50000000000000000000e+03) (90, -1.55844223499298095703e+00) (91, 2.66841316223144531250e+01) (92, -3.43627929687500000000e-02) (93, -1.06604456901550292969e+00) (94, 5.43862760066986083984e-01) (95, 1.50000000000000000000e+03) (96, 7.55165636539459228516e-01) (97, 1.50000000000000000000e+03) (98, 2.70809288024902343750e+01) (99, -1.81198120117187500000e-02) (100, -6.10487908124923706055e-02) (101, 1.50000000000000000000e+03) (102, 1.50000000000000000000e+03) (103, 4.60337495803833007812e+00) (104, 6.40078878402709960938e+00) (105, 1.50000000000000000000e+03) (106, 4.57889705896377563477e-01) (107, -1.72248413085937500000e+02) (108, 1.50000000000000000000e+03) (109, 1.50000000000000000000e+03) (110, -1.74586467742919921875e+01) (111, 1.50000000000000000000e+03) (112, 1.50000000000000000000e+03) (113, -6.66860401630401611328e-01) (114, 1.50000000000000000000e+03) (115, -1.21541731059551239014e-01) (116, 3.60260792076587677002e-02) (117, 5.28437018394470214844e-01) (118, -6.71890556812286376953e-01) (119, 7.22278535366058349609e-01) (120, 1.45314193725585937500e+02) (121, 1.11436629295349121094e+00) (122, 4.39543545246124267578e-01) (123, 1.50000000000000000000e+03) (124, -1.40606994628906250000e+01) (125, -1.63508069515228271484e+00) (0, -6.62005996704101562500e+00) (1, 1.50000000000000000000e+03) (2, -2.88134127855300903320e-01) (3, 3.97617034614086151123e-02) (4, 8.36155936121940612793e-02) (5, -2.11880760192871093750e+01) (6, -3.72795253992080688477e-01) (7, 1.50000000000000000000e+03) (8, 5.47713577747344970703e-01) (9, -7.90411949157714843750e-01) (10, -6.59345090389251708984e-01) (11, 6.38427612304687500000e+02) (12, -1.03923738002777099609e+00) (13, -7.13767930865287780762e-02) (14, -2.20445938110351562500e+01) (15, 1.39844017028808593750e+01) (16, -1.89876060485839843750e+01) (17, -9.36078131198883056641e-02) (18, 8.42162013053894042969e-01) (19, 1.34504028320312500000e+02) (20, -7.17598259449005126953e-01) (21, -6.00340701639652252197e-02) (22, -7.87512512207031250000e+01) (23, -7.87777099609375000000e+01) (24, 1.50000000000000000000e+03) (25, 1.50000000000000000000e+03) (26, 1.50000000000000000000e+03) (27, 1.50000000000000000000e+03) (28, -1.75904428958892822266e+00) (29, 1.50000000000000000000e+03) (30, 1.50000000000000000000e+03) (31, -1.97210674285888671875e+01) (32, 1.50000000000000000000e+03) (33, 5.73308691382408142090e-02) (34, 1.50000000000000000000e+03) (35, 3.93216431140899658203e-01) (36, -1.48127472400665283203e+00) (37, 1.50000000000000000000e+03) (38, -8.36960315704345703125e-01) (39, 8.25254678726196289062e-01) (40, -4.86969137191772460938e+00) (41, -1.63357696533203125000e+01) (42, 1.50000000000000000000e+03) (43, -2.17246457934379577637e-01) (44, -2.64094501733779907227e-01) (45, 1.50000000000000000000e+03) (46, -2.32466716766357421875e+01) (47, -3.69394987821578979492e-01) (48, -3.66701215505599975586e-01) (49, 1.23094985961914062500e+02) (50, -3.96481394767761230469e-01) (51, -3.96645843982696533203e-01) (52, 3.66702735424041748047e-01) (53, -2.03534737229347229004e-01) (54, 1.42162576317787170410e-01) (55, -5.44588029384613037109e-01) (56, 1.50000000000000000000e+03) (57, -2.21268877387046813965e-01) (58, 1.50000000000000000000e+03) (59, 1.23697814941406250000e+02) (60, -6.73779100179672241211e-02) (61, 9.91355895996093750000e-01) (62, 3.51939487457275390625e+00) (63, -8.64654108881950378418e-02) (64, -9.83504533767700195312e-01) (65, 6.93290889263153076172e-01) (66, 1.68174654245376586914e-01) (67, -1.07013091444969177246e-01) (68, 1.65736186504364013672e+00) (69, 1.50000000000000000000e+03) (70, 1.50000000000000000000e+03) (71, -2.28067436218261718750e+01) (72, -2.32681503295898437500e+01) (73, -1.91513188183307647705e-02) (74, 1.23125976562500000000e+02) (75, 1.08920104801654815674e-01) (76, 1.50000000000000000000e+03) (77, 1.12440034747123718262e-01) (78, 1.50000000000000000000e+03) (79, 1.50000000000000000000e+03) (80, -2.28495979309082031250e+01) (81, -2.32698726654052734375e+01) (82, -1.10457330942153930664e-01) (83, 1.23021492004394531250e+02) (84, -3.51824425160884857178e-02) (85, 1.50000000000000000000e+03) (86, 3.38614284992218017578e-02) (87, 1.50000000000000000000e+03) (88, -2.32800598144531250000e+01) (89, -2.31870479583740234375e+01) (90, -7.05534890294075012207e-02) (91, 1.50000000000000000000e+03) (92, 1.50000000000000000000e+03) (93, 3.10132969170808792114e-02) (94, -3.54712905883789062500e+01) (95, 1.50000000000000000000e+03) (96, -5.01758754253387451172e-01) (97, -2.53587112426757812500e+01) (98, 1.50000000000000000000e+03) (99, 1.50000000000000000000e+03) (100, -2.35576558113098144531e+00) (101, 1.50000000000000000000e+03) (102, 1.50000000000000000000e+03) (103, -1.63741912841796875000e+01) (104, -1.63795623779296875000e+01) (105, -2.32272491455078125000e+01) (106, 3.49778741598129272461e-01) (107, 1.50000000000000000000e+03) (108, -2.32255058288574218750e+01) (109, 1.23877319335937500000e+02) (110, 5.81495165824890136719e-01) (111, -2.30983867645263671875e+01) (112, -1.95790500640869140625e+01) (113, -3.97337228059768676758e-01) (114, 2.25610809326171875000e+01) (115, -3.10623526573181152344e+00) (116, -8.50983837153762578964e-04) (117, -7.26894974708557128906e-01) (118, -5.21140336990356445312e-01) (119, 1.64806529879570007324e-01) (120, 6.30536041259765625000e+01) (121, 2.84048974514007568359e-01) (122, 4.67621147632598876953e-01) (123, -3.79653015136718750000e+02) (124, -2.97670423984527587891e-01) (125, 3.01140546798706054688e-03) (0, 2.02865433692932128906e+00) (1, -2.20529556274414062500e+01) (2, -2.71074008196592330933e-02) (3, -2.19894610345363616943e-02) (4, -6.57875910401344299316e-02) (5, 1.50000000000000000000e+03) (6, 3.37633371353149414062e-01) (7, -2.42764091491699218750e+01) (8, 1.51437222957611083984e-01) (9, 1.20687052607536315918e-01) (10, 4.03520822525024414062e-01) (11, -1.55820751190185546875e+01) (12, 7.68257677555084228516e-01) (13, -6.28517493605613708496e-02) (14, 1.50000000000000000000e+03) (15, -1.95294842123985290527e-01) (16, 1.50000000000000000000e+03) (17, -3.49834752082824707031e+00) (18, 2.56619125604629516602e-01) (19, -1.87511100769042968750e+01) (20, 2.37787410616874694824e-01) (21, -2.06554338335990905762e-01) (22, 1.50000000000000000000e+03) (23, 1.50000000000000000000e+03) (24, 2.20604248046875000000e+01) (25, 2.34038009643554687500e+01) (26, 2.21419162750244140625e+01) (27, -2.37235031127929687500e+01) (28, 6.11590814590454101562e+00) (29, 2.14232921600341796875e+01) (30, 2.31318283081054687500e+01) (31, 2.15307968139648437500e+02) (32, 1.50000000000000000000e+03) (33, 1.29197966307401657104e-02) (34, 1.50000000000000000000e+03) (35, -6.06155037879943847656e-01) (36, 7.82285332679748535156e-01) (37, 1.50000000000000000000e+03) (38, 1.10888972878456115723e-01) (39, -1.14079666137695312500e+00) (40, 6.97320222854614257812e-01) (41, 6.77846968173980712891e-01) (42, 2.21317863464355468750e+01) (43, 1.10762846469879150391e+00) (44, 2.49188691377639770508e-01) (45, -7.55715713500976562500e+01) (46, 1.50000000000000000000e+03) (47, 4.66100834310054779053e-02) (48, 4.93323773145675659180e-01) (49, 1.50000000000000000000e+03) (50, 4.95193928480148315430e-01) (51, 5.26255011558532714844e-01) (52, 1.14282444119453430176e-01) (53, -6.13965429365634918213e-02) (54, -8.54697376489639282227e-02) (55, 3.17892551422119140625e+00) (56, 1.50000000000000000000e+03) (57, 6.58947229385375976562e-01) (58, 1.50000000000000000000e+03) (59, 1.50000000000000000000e+03) (60, 1.47710978984832763672e-01) (61, 1.24866461753845214844e+00) (62, -1.02801055908203125000e+01) (63, 8.16925987601280212402e-02) (64, 4.80975568294525146484e-01) (65, 1.87991201877593994141e-01) (66, 6.00904166698455810547e-01) (67, 1.58935397863388061523e-01) (68, -1.58189058303833007812e-01) (69, 2.30636901855468750000e+01) (70, -2.37585449218750000000e+01) (71, 1.50000000000000000000e+03) (72, 1.50000000000000000000e+03) (73, 5.91335773468017578125e-01) (74, 1.50000000000000000000e+03) (75, 3.30675989389419555664e-02) (76, 2.23266468048095703125e+01) (77, 2.92469054460525512695e-01) (78, 2.32047729492187500000e+01) (79, -2.38514251708984375000e+01) (80, 1.50000000000000000000e+03) (81, 1.50000000000000000000e+03) (82, 6.69111967086791992188e-01) (83, 1.50000000000000000000e+03) (84, 5.18123246729373931885e-02) (85, 2.14126682281494140625e+01) (86, 9.66918095946311950684e-02) (87, 1.50000000000000000000e+03) (88, 1.50000000000000000000e+03) (89, 1.50000000000000000000e+03) (90, 2.34606722369790077209e-03) (91, 2.21663551330566406250e+01) (92, -2.37319183349609375000e+01) (93, 7.62338861823081970215e-02) (94, 6.78553485870361328125e+00) (95, 1.50000000000000000000e+03) (96, 5.76274003833532333374e-03) (97, 1.50000000000000000000e+03) (98, 2.31645088195800781250e+01) (99, -2.37061538696289062500e+01) (100, 3.68484646081924438477e-01) (101, 1.50000000000000000000e+03) (102, 1.50000000000000000000e+03) (103, 7.36232876777648925781e-01) (104, 6.85311913490295410156e-01) (105, 1.50000000000000000000e+03) (106, -6.82051956653594970703e-01) (107, -1.79644866943359375000e+02) (108, 1.50000000000000000000e+03) (109, 1.50000000000000000000e+03) (110, -2.78073906898498535156e+00) (111, 1.50000000000000000000e+03) (112, 1.50000000000000000000e+03) (113, 5.48556685447692871094e-01) (114, 1.50000000000000000000e+03) (115, 2.01761439442634582520e-01) (116, -4.32984769344329833984e-01) (117, 1.08126819133758544922e+00) (118, 8.61338153481483459473e-02) (119, 3.76872390508651733398e-01) (120, 1.48528213500976562500e+02) (121, 6.15138649940490722656e-01) (122, 9.86444801092147827148e-02) (123, 1.50000000000000000000e+03) (124, -1.09207105636596679688e+00) (125, 4.02789525687694549561e-02) (0, 4.95482087135314941406e-01) (1, 1.50000000000000000000e+03) (2, 3.98061424493789672852e-01) (3, 4.26348298788070678711e-02) (4, -3.34082961082458496094e-01) (5, -2.56751937866210937500e+01) (6, 6.66842535138130187988e-02) (7, 1.50000000000000000000e+03) (8, -1.16286054253578186035e-01) (9, -1.00395940244197845459e-01) (10, -7.80122503638267517090e-02) (11, 2.58383789062500000000e+02) (12, -4.95458953082561492920e-02) (13, 3.82418304681777954102e-01) (14, -2.59926662445068359375e+01) (15, 4.66577529907226562500e+00) (16, -2.46993026733398437500e+01) (17, -6.54646754264831542969e-01) (18, 1.97845625877380371094e+00) (19, 9.27576538085937500000e+02) (20, 1.54643371701240539551e-01) (21, -3.51489812135696411133e-01) (22, -7.36720581054687500000e+01) (23, -7.37483062744140625000e+01) (24, 1.50000000000000000000e+03) (25, 1.50000000000000000000e+03) (26, 1.50000000000000000000e+03) (27, 1.50000000000000000000e+03) (28, -1.55926263332366943359e+00) (29, 1.50000000000000000000e+03) (30, 1.50000000000000000000e+03) (31, -7.96954441070556640625e+00) (32, 1.50000000000000000000e+03) (33, 2.16839332133531570435e-02) (34, 1.50000000000000000000e+03) (35, 3.26823145151138305664e-02) (36, -8.05212259292602539062e-02) (37, 1.50000000000000000000e+03) (38, 1.86594724655151367188e-01) (39, 1.21375516057014465332e-01) (40, -3.04410576820373535156e-01) (41, -6.46565580368041992188e+00) (42, 1.50000000000000000000e+03) (43, -2.67367959022521972656e-01) (44, 2.34207715839147567749e-02) (45, 1.50000000000000000000e+03) (46, -2.65308532714843750000e+01) (47, 3.27374041080474853516e-01) (48, 2.18561977148056030273e-01) (49, 1.27082786560058593750e+02) (50, -8.54066163301467895508e-02) (51, 4.14434820413589477539e-02) (52, -4.46922099217772483826e-03) (53, 4.19063359498977661133e-01) (54, 5.33912971150130033493e-04) (55, 3.78797799348831176758e-01) (56, 1.50000000000000000000e+03) (57, -3.35376787185668945312e+00) (58, 1.50000000000000000000e+03) (59, 1.27325759887695312500e+02) (60, -4.68214082717895507812e+00) (61, 1.57499015331268310547e+00) (62, 3.94646263122558593750e+00) (63, 2.95404642820358276367e-01) (64, -1.17919194698333740234e+00) (65, 1.56325435638427734375e+00) (66, -3.48773330450057983398e-01) (67, 2.68696635961532592773e-01) (68, 1.19199204444885253906e+00) (69, 1.50000000000000000000e+03) (70, 1.50000000000000000000e+03) (71, -2.63036994934082031250e+01) (72, -2.64873275756835937500e+01) (73, -4.54290658235549926758e-01) (74, 1.27083541870117187500e+02) (75, 3.54356765747070312500e-01) (76, 1.50000000000000000000e+03) (77, -3.33595603704452514648e-01) (78, 1.50000000000000000000e+03) (79, 1.50000000000000000000e+03) (80, -2.63505897521972656250e+01) (81, -2.66230888366699218750e+01) (82, -5.32776415348052978516e-01) (83, 1.27018783569335937500e+02) (84, 5.59348404407501220703e-01) (85, 1.50000000000000000000e+03) (86, 3.88253659009933471680e-01) (87, 1.50000000000000000000e+03) (88, -2.64505004882812500000e+01) (89, -2.65484504699707031250e+01) (90, -2.64007877558469772339e-02) (91, 1.50000000000000000000e+03) (92, 1.50000000000000000000e+03) (93, -1.08243182301521301270e-01) (94, -3.48497772216796875000e+01) (95, 1.50000000000000000000e+03) (96, -9.84957516193389892578e-01) (97, -2.74375801086425781250e+01) (98, 1.50000000000000000000e+03) (99, 1.50000000000000000000e+03) (100, 7.25448504090309143066e-02) (101, 1.50000000000000000000e+03) (102, 1.50000000000000000000e+03) (103, -6.46584749221801757812e+00) (104, -2.49376654624938964844e+00) (105, -2.65843963623046875000e+01) (106, -3.81797671318054199219e-01) (107, 1.50000000000000000000e+03) (108, -2.65606918334960937500e+01) (109, 1.27270965576171875000e+02) (110, 5.94622194766998291016e-01) (111, -2.66129226684570312500e+01) (112, -2.50678882598876953125e+01) (113, -1.11263120174407958984e+00) (114, 2.68464050292968750000e+01) (115, 1.43015244975686073303e-02) (116, -2.00992718338966369629e-01) (117, -7.14232698082923889160e-02) (118, 1.90495744347572326660e-01) (119, -4.70563679933547973633e-01) (120, 1.52248458862304687500e+02) (121, -4.94680315256118774414e-01) (122, 3.70699800550937652588e-02) (123, -3.44925598144531250000e+02) (124, 4.58890289068222045898e-01) (125, 4.51499730348587036133e-01) (0, 4.49063718318939208984e-01) (1, -2.20128135681152343750e+01) (2, 2.90981501340866088867e-01) (3, 1.05073876678943634033e-01) (4, 3.78942131996154785156e-01) (5, 1.50000000000000000000e+03) (6, 7.81011700630187988281e-01) (7, -2.42367191314697265625e+01) (8, -3.49027037620544433594e-01) (9, 1.05995349586009979248e-01) (10, 4.19894784688949584961e-01) (11, -1.57245311737060546875e+01) (12, 5.90453565120697021484e-01) (13, 2.36977115273475646973e-01) (14, 1.50000000000000000000e+03) (15, -4.44802314043045043945e-01) (16, 1.50000000000000000000e+03) (17, -7.59827792644500732422e-02) (18, -3.82276248931884765625e+00) (19, -1.40282478332519531250e+01) (20, 6.19438104331493377686e-02) (21, 3.19612383842468261719e-01) (22, 1.50000000000000000000e+03) (23, 1.50000000000000000000e+03) (24, 2.21903190612792968750e+01) (25, 2.34323081970214843750e+01) (26, 2.20900211334228515625e+01) (27, -2.38203277587890625000e+01) (28, 2.07472801208496093750e+00) (29, 2.14267387390136718750e+01) (30, 2.30852375030517578125e+01) (31, 2.15323226928710937500e+02) (32, 1.50000000000000000000e+03) (33, -2.43673041462898254395e-01) (34, 1.50000000000000000000e+03) (35, 1.19663424789905548096e-01) (36, 1.42517507076263427734e+00) (37, 1.50000000000000000000e+03) (38, 7.19698011875152587891e-01) (39, -3.95544260740280151367e-01) (40, 2.65054941177368164062e-01) (41, 3.09586346149444580078e-01) (42, 2.20946407318115234375e+01) (43, 5.23564159870147705078e-01) (44, 2.53094077110290527344e-01) (45, -7.55236206054687500000e+01) (46, 1.50000000000000000000e+03) (47, 3.36086750030517578125e-01) (48, 2.11668074131011962891e-01) (49, 1.50000000000000000000e+03) (50, 4.63191121816635131836e-01) (51, 7.75680661201477050781e-01) (52, 3.12034320086240768433e-02) (53, 3.70074629783630371094e-01) (54, -1.44146621227264404297e+00) (55, 4.68152189254760742188e+00) (56, 1.50000000000000000000e+03) (57, 4.28147435188293457031e-01) (58, 1.50000000000000000000e+03) (59, 1.50000000000000000000e+03) (60, 3.50618451833724975586e-01) (61, 6.55686438083648681641e-01) (62, -2.88618755340576171875e+00) (63, 2.88173496723175048828e-01) (64, 2.82156974077224731445e-01) (65, 7.09321582689881324768e-03) (66, 5.89103341102600097656e-01) (67, 3.08889538049697875977e-01) (68, 2.91332378983497619629e-02) (69, 2.31627426147460937500e+01) (70, -2.37587661743164062500e+01) (71, 1.50000000000000000000e+03) (72, 1.50000000000000000000e+03) (73, 5.53970932960510253906e-01) (74, 1.50000000000000000000e+03) (75, 1.70619010925292968750e-01) (76, 2.23372287750244140625e+01) (77, 3.86607289314270019531e-01) (78, 2.31885738372802734375e+01) (79, -2.36957702636718750000e+01) (80, 1.50000000000000000000e+03) (81, 1.50000000000000000000e+03) (82, 5.93392968177795410156e-01) (83, 1.50000000000000000000e+03) (84, 1.95712566375732421875e-01) (85, 2.14588394165039062500e+01) (86, 2.71494805812835693359e-01) (87, 1.50000000000000000000e+03) (88, 1.50000000000000000000e+03) (89, 1.50000000000000000000e+03) (90, -2.45156183838844299316e-01) (91, 2.23559646606445312500e+01) (92, -2.37986297607421875000e+01) (93, 1.29689037799835205078e-01) (94, 1.33431129455566406250e+01) (95, 1.50000000000000000000e+03) (96, 2.74103581905364990234e-01) (97, 1.50000000000000000000e+03) (98, 2.30811843872070312500e+01) (99, -2.37600555419921875000e+01) (100, 2.47879192233085632324e-01) (101, 1.50000000000000000000e+03) (102, 1.50000000000000000000e+03) (103, 5.25426983833312988281e-01) (104, 6.87476813793182373047e-01) (105, 1.50000000000000000000e+03) (106, -1.93382073193788528442e-02) (107, -1.79555191040039062500e+02) (108, 1.50000000000000000000e+03) (109, 1.50000000000000000000e+03) (110, -2.64646172523498535156e+00) (111, 1.50000000000000000000e+03) (112, 1.50000000000000000000e+03) (113, 4.55063670873641967773e-01) (114, 1.50000000000000000000e+03) (115, -2.75937784463167190552e-02) (116, 1.52999535202980041504e-01) (117, 1.11762893199920654297e+00) (118, -2.36331567168235778809e-01) (119, 2.80095964670181274414e-01) (120, 1.48403396606445312500e+02) (121, 6.44523024559020996094e-01) (122, 7.93412327766418457031e-01) (123, 1.50000000000000000000e+03) (124, 4.05563801527023315430e-01) (125, 3.45552146434783935547e-01) (0, 8.74873936176300048828e-01) (1, 7.80183563232421875000e+01) (2, 2.13523348793387413025e-03) (3, -5.28308093547821044922e-01) (4, 2.44310006499290466309e-01) (5, 1.50000000000000000000e+03) (6, 6.19286179542541503906e-01) (7, 7.57720031738281250000e+01) (8, -2.62933224439620971680e-01) (9, -3.37536364793777465820e-01) (10, 2.09085315465927124023e-01) (11, 4.10652046203613281250e+01) (12, 1.22940254211425781250e+01) (13, 1.54527127742767333984e-01) (14, 1.50000000000000000000e+03) (15, 1.34181869029998779297e+00) (16, 1.50000000000000000000e+03) (17, 5.98870575428009033203e-01) (18, -2.16895151138305664062e+00) (19, -9.55867385864257812500e+00) (20, 2.15568795800209045410e-01) (21, 2.70487070083618164062e-01) (22, 1.50000000000000000000e+03) (23, 1.50000000000000000000e+03) (24, 2.21987075805664062500e+01) (25, 1.27073173522949218750e+02) (26, 2.57641868591308593750e+01) (27, -1.71607437133789062500e+01) (28, 1.62052214145660400391e+00) (29, 2.14421653747558593750e+01) (30, 1.26887695312500000000e+02) (31, 2.15275680541992187500e+02) (32, 1.50000000000000000000e+03) (33, -7.27595329284667968750e-01) (34, 1.50000000000000000000e+03) (35, -5.80228149890899658203e-01) (36, -3.24903637170791625977e-01) (37, 1.50000000000000000000e+03) (38, 7.50752329826354980469e-01) (39, -9.76744174957275390625e-01) (40, 5.98137021064758300781e-01) (41, 5.86185753345489501953e-01) (42, 1.25870414733886718750e+02) (43, 1.01590120792388916016e+00) (44, 2.18104675412178039551e-01) (45, -7.56260375976562500000e+01) (46, 1.50000000000000000000e+03) (47, 7.83187374472618103027e-02) (48, 4.23584669828414916992e-01) (49, 1.50000000000000000000e+03) (50, 2.97045528888702392578e-01) (51, 1.72269666194915771484e+00) (52, -4.65588569641113281250e-01) (53, -4.49145585298538208008e-02) (54, -8.00080657005310058594e-01) (55, 1.55771672725677490234e+00) (56, 1.50000000000000000000e+03) (57, 4.79928195476531982422e-01) (58, 1.50000000000000000000e+03) (59, 1.50000000000000000000e+03) (60, 1.61214575171470642090e-01) (61, -1.19445335865020751953e+00) (62, -1.92303981781005859375e+01) (63, 3.48041653633117675781e-01) (64, 8.93763780593872070312e-01) (65, -1.58191406726837158203e+00) (66, 3.54805260896682739258e-01) (67, 4.44620661437511444092e-02) (68, -6.07549786567687988281e-01) (69, 2.67770671844482421875e+01) (70, -1.69942932128906250000e+01) (71, 1.50000000000000000000e+03) (72, 1.50000000000000000000e+03) (73, 3.75277996063232421875e-01) (74, 1.50000000000000000000e+03) (75, -1.01446159183979034424e-01) (76, 1.22170089721679687500e+02) (77, 2.28077962994575500488e-01) (78, 2.67739334106445312500e+01) (79, -1.70786590576171875000e+01) (80, 1.50000000000000000000e+03) (81, 1.50000000000000000000e+03) (82, 3.85199069976806640625e-01) (83, 1.50000000000000000000e+03) (84, -2.19978749752044677734e-01) (85, 1.21467697143554687500e+02) (86, 1.50763019919395446777e-01) (87, 1.50000000000000000000e+03) (88, 1.50000000000000000000e+03) (89, 1.50000000000000000000e+03) (90, -7.15867877006530761719e-01) (91, 1.22347732543945312500e+02) (92, -1.69966430664062500000e+01) (93, -4.65215176343917846680e-01) (94, 9.04668152332305908203e-01) (95, 1.50000000000000000000e+03) (96, 9.11355391144752502441e-02) (97, 1.50000000000000000000e+03) (98, 2.68857612609863281250e+01) (99, -1.70840301513671875000e+01) (100, 4.22228783369064331055e-01) (101, 1.50000000000000000000e+03) (102, 1.50000000000000000000e+03) (103, 4.70068812370300292969e-01) (104, 5.45689225196838378906e-01) (105, 1.50000000000000000000e+03) (106, -6.59012615680694580078e-01) (107, -7.96229705810546875000e+01) (108, 1.50000000000000000000e+03) (109, 1.50000000000000000000e+03) (110, -1.01446485519409179688e+00) (111, 1.50000000000000000000e+03) (112, 1.50000000000000000000e+03) (113, 5.15124988555908203125e+00) (114, 1.50000000000000000000e+03) (115, -1.88969209790229797363e-01) (116, -3.13183516263961791992e-01) (117, 1.20008921623229980469e+00) (118, 1.56577140092849731445e-01) (119, 3.25337380170822143555e-01) (120, 7.57646331787109375000e+01) (121, 2.64454394578933715820e-01) (122, -8.90677198767662048340e-02) (123, 1.50000000000000000000e+03) (124, 3.01006674766540527344e-01) (125, 8.03114399313926696777e-02) (0, -2.53729009628295898438e+00) (1, -2.42077217102050781250e+01) (2, -2.36231555938720703125e+01) (3, -2.69609222412109375000e+01) (4, -1.08993400573730468750e+02) (5, 1.50000000000000000000e+03) (6, 3.89110565185546875000e-01) (7, -2.16227264404296875000e+01) (8, 