FANN_FLO_2.1
num_layers=4
learning_rate=0.700000
connection_rate=1.000000
network_type=0
learning_momentum=0.000000
training_algorithm=2
train_error_function=1
train_stop_function=0
cascade_output_change_fraction=0.010000
quickprop_decay=-0.000100
quickprop_mu=1.750000
rprop_increase_factor=1.200000
rprop_decrease_factor=0.500000
rprop_delta_min=0.000000
rprop_delta_max=50.000000
rprop_delta_zero=0.100000
cascade_output_stagnation_epochs=12
cascade_candidate_change_fraction=0.010000
cascade_candidate_stagnation_epochs=12
cascade_max_out_epochs=150
cascade_min_out_epochs=50
cascade_max_cand_epochs=150
cascade_min_cand_epochs=50
cascade_num_candidate_groups=2
bit_fail_limit=3.49999994039535522461e-01
cascade_candidate_limit=1.00000000000000000000e+03
cascade_weight_multiplier=4.00000005960464477539e-01
cascade_activation_functions_count=10
cascade_activation_functions=3 5 7 8 10 11 14 15 16 17 
cascade_activation_steepnesses_count=4
cascade_activation_steepnesses=2.50000000000000000000e-01 5.00000000000000000000e-01 7.50000000000000000000e-01 1.00000000000000000000e+00 
layer_sizes=4 6 6 2 
scale_included=1
scale_mean_in=1000.451233 1.045002 4.500000 
scale_deviation_in=0.287235 0.028723 2.872281 
scale_new_min_in=-1.000000 -1.000000 -1.000000 
scale_factor_in=1.000000 1.000000 1.000000 
scale_mean_out=1000.494019 
scale_deviation_out=0.812039 
scale_new_min_out=-1.000000 
scale_factor_out=1.000000 
neurons (num_inputs, activation_function, activation_steepness)=(0, 0, 0.00000000000000000000e+00) (0, 0, 0.00000000000000000000e+00) (0, 0, 0.00000000000000000000e+00) (0, 0, 0.00000000000000000000e+00) (4, 5, 5.00000000000000000000e-01) (4, 5, 5.00000000000000000000e-01) (4, 5, 5.00000000000000000000e-01) (4, 5, 5.00000000000000000000e-01) (4, 5, 5.00000000000000000000e-01) (0, 5, 0.00000000000000000000e+00) (6, 5, 5.00000000000000000000e-01) (6, 5, 5.00000000000000000000e-01) (6, 5, 5.00000000000000000000e-01) (6, 5, 5.00000000000000000000e-01) (6, 5, 5.00000000000000000000e-01) (0, 5, 0.00000000000000000000e+00) (6, 0, 5.00000000000000000000e-01) (0, 0, 0.00000000000000000000e+00) 
connections (connected_to_neuron, weight)=(0, 9.61815789341926574707e-02) (1, 3.03225368261337280273e-01) (2, -6.25508502125740051270e-02) (3, -7.11154401302337646484e-01) (0, 3.38072806596755981445e-01) (1, 1.01626895368099212646e-01) (2, 4.94117029011249542236e-02) (3, -5.46619575470685958862e-03) (0, 1.47917959839105606079e-03) (1, -3.14400911331176757812e-01) (2, -4.60229963064193725586e-01) (3, 1.08039963245391845703e+00) (0, 4.80605363845825195312e-01) (1, 2.91343122720718383789e-01) (2, 2.45619520545005798340e-01) (3, 5.62958836555480957031e-01) (0, -2.75815933942794799805e-01) (1, 1.31324201822280883789e-01) (2, 7.05787539482116699219e-02) (3, 2.68789052963256835938e-01) (4, -5.04875361919403076172e-01) (5, -3.00327897071838378906e-01) (6, 1.48301437497138977051e-01) (7, 2.56111025810241699219e-01) (8, 1.74884998798370361328e+00) (9, 5.41616268455982208252e-02) (4, 9.82462823390960693359e-01) (5, 1.20378577709197998047e+00) (6, 5.11903524398803710938e-01) (7, -1.01524509489536285400e-01) (8, -4.26074564456939697266e-01) (9, 4.98990565538406372070e-01) (4, -9.65482771396636962891e-01) (5, -2.10718259215354919434e-01) (6, 1.26987621188163757324e-01) (7, 1.30351662635803222656e-01) (8, 1.27350234985351562500e+00) (9, 2.32876371592283248901e-02) (4, 1.03598821163177490234e+00) (5, 1.08638334274291992188e+00) (6, 5.76218664646148681641e-01) (7, -1.07675455510616302490e-01) (8, -4.05769854784011840820e-01) (9, 4.99939709901809692383e-01) (4, 5.18913626670837402344e-01) (5, 9.08967778086662292480e-02) (6, -1.07060432434082031250e+00) (7, -7.19438374042510986328e-01) (8, 6.25514447689056396484e-01) (9, 3.52306842803955078125e-01) (10, -4.28525775671005249023e-01) (11, 1.08790099620819091797e+00) (12, -1.91830074787139892578e+00) (13, 1.21533477306365966797e+00) (14, -1.89710652828216552734e+00) (15, -2.57600471377372741699e-02) 
